<?xml version="1.0"?>
<opencv_storage>
<cascade>
  <stageType>BOOST</stageType>
  <featureType>HAAR</featureType>
  <height>27</height>
  <width>42</width>
  <stageParams>
    <boostType>GAB</boostType>
    <minHitRate>9.9900001287460327e-01</minHitRate>
    <maxFalseAlarm>2.5000000000000000e-01</maxFalseAlarm>
    <weightTrimRate>9.4999999999999996e-01</weightTrimRate>
    <maxDepth>1</maxDepth>
    <maxWeakCount>100</maxWeakCount></stageParams>
  <featureParams>
    <maxCatCount>0</maxCatCount>
    <featSize>1</featSize>
    <mode>ALL</mode></featureParams>
  <stageNum>20</stageNum>
  <stages>
    <!-- stage 0 -->
    <_>
      <maxWeakCount>12</maxWeakCount>
      <stageThreshold>-9.9853605031967163e-01</stageThreshold>
      <weakClassifiers>
        <_>
          <internalNodes>
            0 -1 302 -8.1740722060203552e-02</internalNodes>
          <leafValues>
            7.7777779102325439e-01 -4.8736461997032166e-01</leafValues></_>
        <_>
          <internalNodes>
            0 -1 58 -2.1713852882385254e-02</internalNodes>
          <leafValues>
            5.7065999507904053e-01 -4.8955601453781128e-01</leafValues></_>
        <_>
          <internalNodes>
            0 -1 387 -2.7991492301225662e-02</internalNodes>
          <leafValues>
            6.6552215814590454e-01 -3.5860690474510193e-01</leafValues></_>
        <_>
          <internalNodes>
            0 -1 610 1.5299892402254045e-04</internalNodes>
          <leafValues>
            3.1605693697929382e-01 -7.6026952266693115e-01</leafValues></_>
        <_>
          <internalNodes>
            0 -1 609 -7.6059608545619994e-05</internalNodes>
          <leafValues>
            -7.8570258617401123e-01 2.1651296317577362e-01</leafValues></_>
        <_>
          <internalNodes>
            0 -1 182 1.7904187552630901e-04</internalNodes>
          <leafValues>
            2.0871226489543915e-01 -8.8074016571044922e-01</leafValues></_>
        <_>
          <internalNodes>
            0 -1 482 -2.0675078849308193e-04</internalNodes>
          <leafValues>
            -8.9042788743972778e-01 1.9802959263324738e-01</leafValues></_>
        <_>
          <internalNodes>
            0 -1 55 1.1772845027735457e-04</internalNodes>
          <leafValues>
            2.5032338500022888e-01 -7.2562557458877563e-01</leafValues></_>
        <_>
          <internalNodes>
            0 -1 481 1.9537152547854930e-04</internalNodes>
          <leafValues>
            2.8710517287254333e-01 -6.8316429853439331e-01</leafValues></_>
        <_>
          <internalNodes>
            0 -1 531 1.3297144323587418e-04</internalNodes>
          <leafValues>
            2.1079912781715393e-01 -7.5824964046478271e-01</leafValues></_>
        <_>
          <internalNodes>
            0 -1 652 1.4228222426027060e-03</internalNodes>
          <leafValues>
            -4.3671974539756775e-01 4.5792058110237122e-01</leafValues></_>
        <_>
          <internalNodes>
            0 -1 574 1.3066176325082779e-04</internalNodes>
          <leafValues>
            2.3812742531299591e-01 -7.9983007907867432e-01</leafValues></_></weakClassifiers></_>
    <!-- stage 1 -->
    <_>
      <maxWeakCount>20</maxWeakCount>
      <stageThreshold>-1.1907708644866943e+00</stageThreshold>
      <weakClassifiers>
        <_>
          <internalNodes>
            0 -1 301 -4.0628984570503235e-02</internalNodes>
          <leafValues>
            4.8517939448356628e-01 -6.9868993759155273e-01</leafValues></_>
        <_>
          <internalNodes>
            0 -1 370 1.0148163884878159e-02</internalNodes>
          <leafValues>
            -2.9635965824127197e-01 6.9477933645248413e-01</leafValues></_>
        <_>
          <internalNodes>
            0 -1 649 3.6313761956989765e-03</internalNodes>
          <leafValues>
            -3.0207982659339905e-01 5.9804797172546387e-01</leafValues></_>
        <_>
          <internalNodes>
            0 -1 573 -8.6733096395619214e-05</internalNodes>
          <leafValues>
            -7.8214007616043091e-01 2.0326651632785797e-01</leafValues></_>
        <_>
          <internalNodes>
            0 -1 506 -6.7275304900249466e-06</internalNodes>
          <leafValues>
            2.9813715815544128e-01 -4.8933726549148560e-01</leafValues></_>
        <_>
          <internalNodes>
            0 -1 500 7.9797959187999368e-05</internalNodes>
          <leafValues>
            1.9256000220775604e-01 -6.9462704658508301e-01</leafValues></_>
        <_>
          <internalNodes>
            0 -1 159 -2.1154131740331650e-02</internalNodes>
          <leafValues>
            3.9286112785339355e-01 -3.8628020882606506e-01</leafValues></_>
        <_>
          <internalNodes>
            0 -1 215 -7.9402793198823929e-03</internalNodes>
          <leafValues>
            6.6790986061096191e-01 -2.4448591470718384e-01</leafValues></_>
        <_>
          <internalNodes>
            0 -1 44 -5.0250925123691559e-03</internalNodes>
          <leafValues>
            6.0362881422042847e-01 -2.2374014556407928e-01</leafValues></_>
        <_>
          <internalNodes>
            0 -1 677 -1.1612173693720251e-04</internalNodes>
          <leafValues>
            -7.5896996259689331e-01 1.9817730784416199e-01</leafValues></_>
        <_>
          <internalNodes>
            0 -1 118 -9.1685680672526360e-05</internalNodes>
          <leafValues>
            -6.1801064014434814e-01 1.9422377645969391e-01</leafValues></_>
        <_>
          <internalNodes>
            0 -1 206 3.3984593756031245e-05</internalNodes>
          <leafValues>
            2.3538395762443542e-01 -5.8700972795486450e-01</leafValues></_>
        <_>
          <internalNodes>
            0 -1 14 -1.5308944275602698e-03</internalNodes>
          <leafValues>
            5.4580903053283691e-01 -2.3053297400474548e-01</leafValues></_>
        <_>
          <internalNodes>
            0 -1 249 -1.3117369962856174e-04</internalNodes>
          <leafValues>
            -7.0093870162963867e-01 1.8558703362941742e-01</leafValues></_>
        <_>
          <internalNodes>
            0 -1 269 -1.2886044569313526e-03</internalNodes>
          <leafValues>
            2.7752646803855896e-01 -4.7331246733665466e-01</leafValues></_>
        <_>
          <internalNodes>
            0 -1 661 -1.1673016706481576e-03</internalNodes>
          <leafValues>
            6.8327826261520386e-01 -1.6938827931880951e-01</leafValues></_>
        <_>
          <internalNodes>
            0 -1 617 -2.0315931178629398e-03</internalNodes>
          <leafValues>
            4.2758390307426453e-01 -2.8231689333915710e-01</leafValues></_>
        <_>
          <internalNodes>
            0 -1 440 4.8751570284366608e-04</internalNodes>
          <leafValues>
            2.2977109253406525e-01 -5.7846468687057495e-01</leafValues></_>
        <_>
          <internalNodes>
            0 -1 546 -1.3825467613060027e-04</internalNodes>
          <leafValues>
            3.6335071921348572e-01 -3.4898251295089722e-01</leafValues></_>
        <_>
          <internalNodes>
            0 -1 210 7.2749462560750544e-05</internalNodes>
          <leafValues>
            1.8123997747898102e-01 -6.9663912057876587e-01</leafValues></_></weakClassifiers></_>
    <!-- stage 2 -->
    <_>
      <maxWeakCount>14</maxWeakCount>
      <stageThreshold>-9.2270445823669434e-01</stageThreshold>
      <weakClassifiers>
        <_>
          <internalNodes>
            0 -1 472 -2.5483085773885250e-03</internalNodes>
          <leafValues>
            6.1724501848220825e-01 -3.6121672391891479e-01</leafValues></_>
        <_>
          <internalNodes>
            0 -1 209 -5.9451330453157425e-03</internalNodes>
          <leafValues>
            4.0377682447433472e-01 -5.9453630447387695e-01</leafValues></_>
        <_>
          <internalNodes>
            0 -1 129 5.8029912412166595e-02</internalNodes>
          <leafValues>
            -2.9769349098205566e-01 6.8535888195037842e-01</leafValues></_>
        <_>
          <internalNodes>
            0 -1 62 3.2814214937388897e-03</internalNodes>
          <leafValues>
            -3.5358351469039917e-01 6.1398035287857056e-01</leafValues></_>
        <_>
          <internalNodes>
            0 -1 333 1.9479861948639154e-03</internalNodes>
          <leafValues>
            -2.5358507037162781e-01 6.4870476722717285e-01</leafValues></_>
        <_>
          <internalNodes>
            0 -1 514 2.5630064308643341e-02</internalNodes>
          <leafValues>
            -5.0738185644149780e-01 3.2376632094383240e-01</leafValues></_>
        <_>
          <internalNodes>
            0 -1 43 -8.9013203978538513e-04</internalNodes>
          <leafValues>
            3.7188637256622314e-01 -5.1823747158050537e-01</leafValues></_>
        <_>
          <internalNodes>
            0 -1 357 -5.4989187046885490e-03</internalNodes>
          <leafValues>
            6.5290248394012451e-01 -1.9355700910091400e-01</leafValues></_>
        <_>
          <internalNodes>
            0 -1 397 2.2709220647811890e-03</internalNodes>
          <leafValues>
            -3.1021386384963989e-01 5.5745077133178711e-01</leafValues></_>
        <_>
          <internalNodes>
            0 -1 389 -9.7579741850495338e-04</internalNodes>
          <leafValues>
            4.5415556430816650e-01 -3.2469123601913452e-01</leafValues></_>
        <_>
          <internalNodes>
            0 -1 627 7.6204829383641481e-05</internalNodes>
          <leafValues>
            2.1093985438346863e-01 -6.9382500648498535e-01</leafValues></_>
        <_>
          <internalNodes>
            0 -1 284 -2.1031894721090794e-03</internalNodes>
          <leafValues>
            5.2348881959915161e-01 -3.0328986048698425e-01</leafValues></_>
        <_>
          <internalNodes>
            0 -1 9 -1.3224177062511444e-02</internalNodes>
          <leafValues>
            6.0049897432327271e-01 -2.2202581167221069e-01</leafValues></_>
        <_>
          <internalNodes>
            0 -1 134 -1.8637250177562237e-03</internalNodes>
          <leafValues>
            6.5251994132995605e-01 -1.9807039201259613e-01</leafValues></_></weakClassifiers></_>
    <!-- stage 3 -->
    <_>
      <maxWeakCount>20</maxWeakCount>
      <stageThreshold>-1.0658092498779297e+00</stageThreshold>
      <weakClassifiers>
        <_>
          <internalNodes>
            0 -1 116 -1.0897438041865826e-02</internalNodes>
          <leafValues>
            5.2339690923690796e-01 -5.1535838842391968e-01</leafValues></_>
        <_>
          <internalNodes>
            0 -1 232 1.1677087843418121e-01</internalNodes>
          <leafValues>
            -3.2542374730110168e-01 6.2133491039276123e-01</leafValues></_>
        <_>
          <internalNodes>
            0 -1 53 -1.5188830730039626e-05</internalNodes>
          <leafValues>
            3.2447665929794312e-01 -5.5858135223388672e-01</leafValues></_>
        <_>
          <internalNodes>
            0 -1 2 3.6679472774267197e-02</internalNodes>
          <leafValues>
            -2.8146797418594360e-01 6.4464116096496582e-01</leafValues></_>
        <_>
          <internalNodes>
            0 -1 545 -1.3575006276369095e-02</internalNodes>
          <leafValues>
            5.8704054355621338e-01 -3.1211599707603455e-01</leafValues></_>
        <_>
          <internalNodes>
            0 -1 313 1.5346001833677292e-02</internalNodes>
          <leafValues>
            -1.5200856328010559e-01 7.4525296688079834e-01</leafValues></_>
        <_>
          <internalNodes>
            0 -1 624 -2.0517301163636148e-04</internalNodes>
          <leafValues>
            -8.6033022403717041e-01 1.7209030687808990e-01</leafValues></_>
        <_>
          <internalNodes>
            0 -1 279 -8.9598633348941803e-03</internalNodes>
          <leafValues>
            5.9523361921310425e-01 -2.1810953319072723e-01</leafValues></_>
        <_>
          <internalNodes>
            0 -1 636 3.3928151242434978e-04</internalNodes>
          <leafValues>
            1.5266515314579010e-01 -7.7611124515533447e-01</leafValues></_>
        <_>
          <internalNodes>
            0 -1 655 7.8332359407795593e-06</internalNodes>
          <leafValues>
            -4.8225757479667664e-01 2.8270050883293152e-01</leafValues></_>
        <_>
          <internalNodes>
            0 -1 675 5.5278209038078785e-04</internalNodes>
          <leafValues>
            1.7745162546634674e-01 -7.4022001028060913e-01</leafValues></_>
        <_>
          <internalNodes>
            0 -1 229 -4.7883158549666405e-03</internalNodes>
          <leafValues>
            5.6369763612747192e-01 -2.3483398556709290e-01</leafValues></_>
        <_>
          <internalNodes>
            0 -1 444 -1.0227019898593426e-02</internalNodes>
          <leafValues>
            5.6540220975875854e-01 -2.0820482075214386e-01</leafValues></_>
        <_>
          <internalNodes>
            0 -1 236 5.6913990527391434e-02</internalNodes>
          <leafValues>
            -1.3194194436073303e-01 7.9249411821365356e-01</leafValues></_>
        <_>
          <internalNodes>
            0 -1 0 -6.5779983997344971e-03</internalNodes>
          <leafValues>
            4.4830834865570068e-01 -2.8736445307731628e-01</leafValues></_>
        <_>
          <internalNodes>
            0 -1 179 1.8027194892056286e-04</internalNodes>
          <leafValues>
            1.7175355553627014e-01 -7.1742820739746094e-01</leafValues></_>
        <_>
          <internalNodes>
            0 -1 283 -5.0607612356543541e-03</internalNodes>
          <leafValues>
            4.6254038810729980e-01 -2.3777455091476440e-01</leafValues></_>
        <_>
          <internalNodes>
            0 -1 392 -3.2904278486967087e-03</internalNodes>
          <leafValues>
            3.5075318813323975e-01 -3.1825157999992371e-01</leafValues></_>
        <_>
          <internalNodes>
            0 -1 183 1.2241803109645844e-02</internalNodes>
          <leafValues>
            -1.9059255719184875e-01 5.6274729967117310e-01</leafValues></_>
        <_>
          <internalNodes>
            0 -1 117 -5.8812211136682890e-06</internalNodes>
          <leafValues>
            3.3082818984985352e-01 -3.2537776231765747e-01</leafValues></_></weakClassifiers></_>
    <!-- stage 4 -->
    <_>
      <maxWeakCount>18</maxWeakCount>
      <stageThreshold>-1.0434503555297852e+00</stageThreshold>
      <weakClassifiers>
        <_>
          <internalNodes>
            0 -1 162 1.6714650392532349e-01</internalNodes>
          <leafValues>
            -1.3356164097785950e-01 8.0069929361343384e-01</leafValues></_>
        <_>
          <internalNodes>
            0 -1 156 -6.0570437199203297e-06</internalNodes>
          <leafValues>
            3.6123520135879517e-01 -4.5759865641593933e-01</leafValues></_>
        <_>
          <internalNodes>
            0 -1 20 -5.0411507487297058e-02</internalNodes>
          <leafValues>
            5.3456819057464600e-01 -2.8397712111473083e-01</leafValues></_>
        <_>
          <internalNodes>
            0 -1 422 2.4509709328413010e-04</internalNodes>
          <leafValues>
            2.1006645262241364e-01 -6.7827516794204712e-01</leafValues></_>
        <_>
          <internalNodes>
            0 -1 369 6.9740936160087585e-03</internalNodes>
          <leafValues>
            -1.9835062325000763e-01 6.9908249378204346e-01</leafValues></_>
        <_>
          <internalNodes>
            0 -1 391 3.1902943737804890e-04</internalNodes>
          <leafValues>
            1.7122319340705872e-01 -8.0016022920608521e-01</leafValues></_>
        <_>
          <internalNodes>
            0 -1 312 -4.9127712845802307e-03</internalNodes>
          <leafValues>
            5.6219065189361572e-01 -2.6455530524253845e-01</leafValues></_>
        <_>
          <internalNodes>
            0 -1 411 3.1991285504773259e-04</internalNodes>
          <leafValues>
            2.3064744472503662e-01 -7.6643979549407959e-01</leafValues></_>
        <_>
          <internalNodes>
            0 -1 95 -2.8000441379845142e-03</internalNodes>
          <leafValues>
            3.2546809315681458e-01 -3.9313197135925293e-01</leafValues></_>
        <_>
          <internalNodes>
            0 -1 195 -2.5869080796837807e-02</internalNodes>
          <leafValues>
            6.7420136928558350e-01 -1.9765406847000122e-01</leafValues></_>
        <_>
          <internalNodes>
            0 -1 428 -2.0846448838710785e-02</internalNodes>
          <leafValues>
            7.6576429605484009e-01 -1.7176462709903717e-01</leafValues></_>
        <_>
          <internalNodes>
            0 -1 295 -2.5704924017190933e-02</internalNodes>
          <leafValues>
            5.7296150922775269e-01 -2.2304855287075043e-01</leafValues></_>
        <_>
          <internalNodes>
            0 -1 657 6.0735829174518585e-04</internalNodes>
          <leafValues>
            1.8381223082542419e-01 -7.4868232011795044e-01</leafValues></_>
        <_>
          <internalNodes>
            0 -1 504 -1.7086707521229982e-03</internalNodes>
          <leafValues>
            5.0427329540252686e-01 -2.3934587836265564e-01</leafValues></_>
        <_>
          <internalNodes>
            0 -1 633 -5.8662721130531281e-05</internalNodes>
          <leafValues>
            -6.9242250919342041e-01 1.8090155720710754e-01</leafValues></_>
        <_>
          <internalNodes>
            0 -1 152 -1.8334265798330307e-02</internalNodes>
          <leafValues>
            3.8528952002525330e-01 -3.0335143208503723e-01</leafValues></_>
        <_>
          <internalNodes>
            0 -1 539 -2.1811806072946638e-04</internalNodes>
          <leafValues>
            -7.5707864761352539e-01 1.4642311632633209e-01</leafValues></_>
        <_>
          <internalNodes>
            0 -1 363 -1.2040654197335243e-02</internalNodes>
          <leafValues>
            7.2794222831726074e-01 -1.6905637085437775e-01</leafValues></_></weakClassifiers></_>
    <!-- stage 5 -->
    <_>
      <maxWeakCount>26</maxWeakCount>
      <stageThreshold>-8.6284947395324707e-01</stageThreshold>
      <weakClassifiers>
        <_>
          <internalNodes>
            0 -1 653 1.0493642184883356e-03</internalNodes>
          <leafValues>
            -2.8109452128410339e-01 5.6410259008407593e-01</leafValues></_>
        <_>
          <internalNodes>
            0 -1 120 -2.4883821606636047e-03</internalNodes>
          <leafValues>
            3.1244713068008423e-01 -4.5381516218185425e-01</leafValues></_>
        <_>
          <internalNodes>
            0 -1 33 -1.0953482706099749e-03</internalNodes>
          <leafValues>
            5.2650552988052368e-01 -2.3730553686618805e-01</leafValues></_>
        <_>
          <internalNodes>
            0 -1 22 1.4419953804463148e-03</internalNodes>
          <leafValues>
            -1.7444734275341034e-01 6.5336209535598755e-01</leafValues></_>
        <_>
          <internalNodes>
            0 -1 50 -1.1018742807209492e-03</internalNodes>
          <leafValues>
            2.4622933566570282e-01 -4.6323284506797791e-01</leafValues></_>
        <_>
          <internalNodes>
            0 -1 353 3.8240171852521598e-04</internalNodes>
          <leafValues>
            -2.6739445328712463e-01 4.3843173980712891e-01</leafValues></_>
        <_>
          <internalNodes>
            0 -1 213 7.6701864600181580e-02</internalNodes>
          <leafValues>
            -2.3554027080535889e-01 4.9727490544319153e-01</leafValues></_>
        <_>
          <internalNodes>
            0 -1 226 8.4691680967807770e-05</internalNodes>
          <leafValues>
            1.5689736604690552e-01 -6.5952563285827637e-01</leafValues></_>
        <_>
          <internalNodes>
            0 -1 274 -3.4100324846804142e-03</internalNodes>
          <leafValues>
            5.1779568195343018e-01 -1.9477103650569916e-01</leafValues></_>
        <_>
          <internalNodes>
            0 -1 64 -1.1387052014470100e-02</internalNodes>
          <leafValues>
            3.3625715970993042e-01 -3.0118945240974426e-01</leafValues></_>
        <_>
          <internalNodes>
            0 -1 16 1.4738775789737701e-02</internalNodes>
          <leafValues>
            -1.6697789728641510e-01 6.1760044097900391e-01</leafValues></_>
        <_>
          <internalNodes>
            0 -1 321 -2.4528251960873604e-03</internalNodes>
          <leafValues>
            5.6080824136734009e-01 -1.8477633595466614e-01</leafValues></_>
        <_>
          <internalNodes>
            0 -1 299 1.2008823454380035e-02</internalNodes>
          <leafValues>
            1.5737400949001312e-01 -6.9444870948791504e-01</leafValues></_>
        <_>
          <internalNodes>
            0 -1 638 1.4550998457707465e-04</internalNodes>
          <leafValues>
            1.1168406158685684e-01 -7.1395862102508545e-01</leafValues></_>
        <_>
          <internalNodes>
            0 -1 564 3.3249813131988049e-03</internalNodes>
          <leafValues>
            -3.0526140332221985e-01 3.2494473457336426e-01</leafValues></_>
        <_>
          <internalNodes>
            0 -1 259 -3.4367213957011700e-03</internalNodes>
          <leafValues>
            5.9347647428512573e-01 -1.5115588903427124e-01</leafValues></_>
        <_>
          <internalNodes>
            0 -1 380 -5.3793014958500862e-03</internalNodes>
          <leafValues>
            4.7212713956832886e-01 -1.5425264835357666e-01</leafValues></_>
        <_>
          <internalNodes>
            0 -1 555 -8.7958498625084758e-05</internalNodes>
          <leafValues>
            -7.1961343288421631e-01 1.1064809560775757e-01</leafValues></_>
        <_>
          <internalNodes>
            0 -1 12 1.2376602739095688e-02</internalNodes>
          <leafValues>
            -1.6500774025917053e-01 5.5009245872497559e-01</leafValues></_>
        <_>
          <internalNodes>
            0 -1 133 3.0909961787983775e-04</internalNodes>
          <leafValues>
            -2.4128940701484680e-01 3.5283160209655762e-01</leafValues></_>
        <_>
          <internalNodes>
            0 -1 673 -1.1549857445061207e-03</internalNodes>
          <leafValues>
            6.1983191967010498e-01 -1.3952808082103729e-01</leafValues></_>
        <_>
          <internalNodes>
            0 -1 664 2.0340299233794212e-03</internalNodes>
          <leafValues>
            -1.2884294986724854e-01 6.5927648544311523e-01</leafValues></_>
        <_>
          <internalNodes>
            0 -1 469 4.6989135444164276e-03</internalNodes>
          <leafValues>
            -1.2096329778432846e-01 5.9405106306076050e-01</leafValues></_>
        <_>
          <internalNodes>
            0 -1 92 -8.1904290709644556e-05</internalNodes>
          <leafValues>
            -4.5142355561256409e-01 1.8913625180721283e-01</leafValues></_>
        <_>
          <internalNodes>
            0 -1 113 -1.5037701814435422e-05</internalNodes>
          <leafValues>
            2.2082820534706116e-01 -3.7059938907623291e-01</leafValues></_>
        <_>
          <internalNodes>
            0 -1 346 -1.3374686241149902e-03</internalNodes>
          <leafValues>
            3.5474425554275513e-01 -2.1854048967361450e-01</leafValues></_></weakClassifiers></_>
    <!-- stage 6 -->
    <_>
      <maxWeakCount>31</maxWeakCount>
      <stageThreshold>-9.4095528125762939e-01</stageThreshold>
      <weakClassifiers>
        <_>
          <internalNodes>
            0 -1 637 6.0570437199203297e-06</internalNodes>
          <leafValues>
            -3.8071066141128540e-01 4.5865970849990845e-01</leafValues></_>
        <_>
          <internalNodes>
            0 -1 52 -1.2080355190846603e-05</internalNodes>
          <leafValues>
            3.1220689415931702e-01 -4.5203787088394165e-01</leafValues></_>
        <_>
          <internalNodes>
            0 -1 364 -1.9694691896438599e-01</internalNodes>
          <leafValues>
            4.5400184392929077e-01 -2.6372665166854858e-01</leafValues></_>
        <_>
          <internalNodes>
            0 -1 534 -1.4983382425270975e-04</internalNodes>
          <leafValues>
            -6.3059180974960327e-01 1.7222908139228821e-01</leafValues></_>
        <_>
          <internalNodes>
            0 -1 435 -7.7466729635489173e-06</internalNodes>
          <leafValues>
            2.1933786571025848e-01 -4.4193601608276367e-01</leafValues></_>
        <_>
          <internalNodes>
            0 -1 396 1.0180378332734108e-02</internalNodes>
          <leafValues>
            -2.2786758840084076e-01 4.4602641463279724e-01</leafValues></_>
        <_>
          <internalNodes>
            0 -1 26 2.7828680351376534e-02</internalNodes>
          <leafValues>
            1.6576819121837616e-01 -7.8136724233627319e-01</leafValues></_>
        <_>
          <internalNodes>
            0 -1 143 1.2470662593841553e-02</internalNodes>
          <leafValues>
            1.0542064905166626e-01 -6.8922388553619385e-01</leafValues></_>
        <_>
          <internalNodes>
            0 -1 540 2.3397459881380200e-04</internalNodes>
          <leafValues>
            7.4470438063144684e-02 -6.8912118673324585e-01</leafValues></_>
        <_>
          <internalNodes>
            0 -1 650 4.5617419527843595e-04</internalNodes>
          <leafValues>
            -2.3024414479732513e-01 3.8861864805221558e-01</leafValues></_>
        <_>
          <internalNodes>
            0 -1 622 -2.5203515542671084e-04</internalNodes>
          <leafValues>
            -5.7793396711349487e-01 1.5030761063098907e-01</leafValues></_>
        <_>
          <internalNodes>
            0 -1 98 1.1977739632129669e-04</internalNodes>
          <leafValues>
            9.5421336591243744e-02 -7.5019824504852295e-01</leafValues></_>
        <_>
          <internalNodes>
            0 -1 398 1.2680107727646828e-02</internalNodes>
          <leafValues>
            -1.4644573628902435e-01 6.3334691524505615e-01</leafValues></_>
        <_>
          <internalNodes>
            0 -1 654 1.8851824279408902e-05</internalNodes>
          <leafValues>
            -3.5574394464492798e-01 2.2250518202781677e-01</leafValues></_>
        <_>
          <internalNodes>
            0 -1 13 -1.8036479596048594e-03</internalNodes>
          <leafValues>
            5.0681591033935547e-01 -1.7075450718402863e-01</leafValues></_>
        <_>
          <internalNodes>
            0 -1 477 6.5762479789555073e-04</internalNodes>
          <leafValues>
            -2.6848435401916504e-01 2.6882630586624146e-01</leafValues></_>
        <_>
          <internalNodes>
            0 -1 509 9.5447772764600813e-05</internalNodes>
          <leafValues>
            1.3550464808940887e-01 -6.1549001932144165e-01</leafValues></_>
        <_>
          <internalNodes>
            0 -1 484 -2.4941246374510229e-04</internalNodes>
          <leafValues>
            2.0873269438743591e-01 -3.6089554429054260e-01</leafValues></_>
        <_>
          <internalNodes>
            0 -1 108 -4.3027810752391815e-03</internalNodes>
          <leafValues>
            4.5446345210075378e-01 -1.8004414439201355e-01</leafValues></_>
        <_>
          <internalNodes>
            0 -1 403 2.5734174251556396e-01</internalNodes>
          <leafValues>
            -1.0389491915702820e-01 6.9350564479827881e-01</leafValues></_>
        <_>
          <internalNodes>
            0 -1 291 -3.6789956502616405e-03</internalNodes>
          <leafValues>
            2.7473190426826477e-01 -2.7685126662254333e-01</leafValues></_>
        <_>
          <internalNodes>
            0 -1 605 -6.8058934994041920e-04</internalNodes>
          <leafValues>
            -6.5731334686279297e-01 1.1225263774394989e-01</leafValues></_>
        <_>
          <internalNodes>
            0 -1 38 2.2073718355386518e-05</internalNodes>
          <leafValues>
            -2.4644236266613007e-01 3.2516217231750488e-01</leafValues></_>
        <_>
          <internalNodes>
            0 -1 76 -2.3368787951767445e-03</internalNodes>
          <leafValues>
            8.5208976268768311e-01 -7.8955754637718201e-02</leafValues></_>
        <_>
          <internalNodes>
            0 -1 201 -8.2042196299880743e-04</internalNodes>
          <leafValues>
            -5.8207905292510986e-01 1.4265914261341095e-01</leafValues></_>
        <_>
          <internalNodes>
            0 -1 70 -4.3444596230983734e-03</internalNodes>
          <leafValues>
            5.4851990938186646e-01 -1.4371775090694427e-01</leafValues></_>
        <_>
          <internalNodes>
            0 -1 199 -9.2159747146070004e-04</internalNodes>
          <leafValues>
            -6.3335812091827393e-01 1.2499541044235229e-01</leafValues></_>
        <_>
          <internalNodes>
            0 -1 467 7.3715345934033394e-05</internalNodes>
          <leafValues>
            2.0342126488685608e-01 -3.3748754858970642e-01</leafValues></_>
        <_>
          <internalNodes>
            0 -1 459 3.3706928661558777e-05</internalNodes>
          <leafValues>
            -2.8145587444305420e-01 2.9043340682983398e-01</leafValues></_>
        <_>
          <internalNodes>
            0 -1 151 -5.4519902914762497e-03</internalNodes>
          <leafValues>
            3.1938743591308594e-01 -2.3071083426475525e-01</leafValues></_>
        <_>
          <internalNodes>
            0 -1 523 -1.2758890166878700e-02</internalNodes>
          <leafValues>
            4.9903458356857300e-01 -1.4989344775676727e-01</leafValues></_></weakClassifiers></_>
    <!-- stage 7 -->
    <_>
      <maxWeakCount>33</maxWeakCount>
      <stageThreshold>-5.6257814168930054e-01</stageThreshold>
      <weakClassifiers>
        <_>
          <internalNodes>
            0 -1 48 -1.0440454352647066e-03</internalNodes>
          <leafValues>
            3.7774166464805603e-01 -3.2023575901985168e-01</leafValues></_>
        <_>
          <internalNodes>
            0 -1 554 7.5734977144747972e-05</internalNodes>
          <leafValues>
            -5.1225936412811279e-01 1.7801716923713684e-01</leafValues></_>
        <_>
          <internalNodes>
            0 -1 442 6.5258294343948364e-03</internalNodes>
          <leafValues>
            -1.4944341778755188e-01 5.3463041782379150e-01</leafValues></_>
        <_>
          <internalNodes>
            0 -1 454 -2.3900838568806648e-03</internalNodes>
          <leafValues>
            4.3125435709953308e-01 -2.1307778358459473e-01</leafValues></_>
        <_>
          <internalNodes>
            0 -1 41 -3.4510591067373753e-03</internalNodes>
          <leafValues>
            2.0099683105945587e-01 -4.4748938083648682e-01</leafValues></_>
        <_>
          <internalNodes>
            0 -1 110 -1.9581119995564222e-03</internalNodes>
          <leafValues>
            3.1892660260200500e-01 -2.6739886403083801e-01</leafValues></_>
        <_>
          <internalNodes>
            0 -1 225 2.5717593962326646e-04</internalNodes>
          <leafValues>
            1.0678923875093460e-01 -5.5179584026336670e-01</leafValues></_>
        <_>
          <internalNodes>
            0 -1 551 -2.0865795668214560e-03</internalNodes>
          <leafValues>
            2.1975228190422058e-01 -3.6277514696121216e-01</leafValues></_>
        <_>
          <internalNodes>
            0 -1 415 -3.9165420457720757e-03</internalNodes>
          <leafValues>
            4.0446278452873230e-01 -1.7689384520053864e-01</leafValues></_>
        <_>
          <internalNodes>
            0 -1 339 -5.9603881090879440e-03</internalNodes>
          <leafValues>
            4.7703486680984497e-01 -1.5735785663127899e-01</leafValues></_>
        <_>
          <internalNodes>
            0 -1 5 7.9863257706165314e-03</internalNodes>
          <leafValues>
            -2.4351830780506134e-01 3.0423334240913391e-01</leafValues></_>
        <_>
          <internalNodes>
            0 -1 451 -4.0194122120738029e-03</internalNodes>
          <leafValues>
            3.0824899673461914e-01 -2.6184460520744324e-01</leafValues></_>
        <_>
          <internalNodes>
            0 -1 124 -2.3264922201633453e-02</internalNodes>
          <leafValues>
            4.4536101818084717e-01 -1.4630062878131866e-01</leafValues></_>
        <_>
          <internalNodes>
            0 -1 254 -4.0738098323345184e-03</internalNodes>
          <leafValues>
            5.0892502069473267e-01 -1.4193548262119293e-01</leafValues></_>
        <_>
          <internalNodes>
            0 -1 667 -5.2956177387386560e-04</internalNodes>
          <leafValues>
            3.4043991565704346e-01 -1.9806395471096039e-01</leafValues></_>
        <_>
          <internalNodes>
            0 -1 678 -2.2751577489543706e-04</internalNodes>
          <leafValues>
            -5.8951848745346069e-01 1.4054584503173828e-01</leafValues></_>
        <_>
          <internalNodes>
            0 -1 437 -3.3122085733339190e-04</internalNodes>
          <leafValues>
            1.9243294000625610e-01 -3.2688578963279724e-01</leafValues></_>
        <_>
          <internalNodes>
            0 -1 623 -3.7050974788144231e-04</internalNodes>
          <leafValues>
            -5.6188035011291504e-01 1.3534994423389435e-01</leafValues></_>
        <_>
          <internalNodes>
            0 -1 107 -2.6140441186726093e-03</internalNodes>
          <leafValues>
            4.3990081548690796e-01 -1.7430375516414642e-01</leafValues></_>
        <_>
          <internalNodes>
            0 -1 168 -1.7369006527587771e-03</internalNodes>
          <leafValues>
            3.8358515501022339e-01 -1.6014719009399414e-01</leafValues></_>
        <_>
          <internalNodes>
            0 -1 180 4.8760928621049970e-05</internalNodes>
          <leafValues>
            1.1788316816091537e-01 -5.6664067506790161e-01</leafValues></_>
        <_>
          <internalNodes>
            0 -1 687 -7.1979162748903036e-04</internalNodes>
          <leafValues>
            5.7781773805618286e-01 -1.3938418030738831e-01</leafValues></_>
        <_>
          <internalNodes>
            0 -1 197 -1.1866461485624313e-02</internalNodes>
          <leafValues>
            3.5881912708282471e-01 -1.8950980901718140e-01</leafValues></_>
        <_>
          <internalNodes>
            0 -1 271 -5.3823079913854599e-02</internalNodes>
          <leafValues>
            5.2064335346221924e-01 -1.3434804975986481e-01</leafValues></_>
        <_>
          <internalNodes>
            0 -1 106 4.5377627015113831e-02</internalNodes>
          <leafValues>
            -1.3606761395931244e-01 5.1598989963531494e-01</leafValues></_>
        <_>
          <internalNodes>
            0 -1 646 -1.7376646865159273e-03</internalNodes>
          <leafValues>
            3.8650113344192505e-01 -1.6702342033386230e-01</leafValues></_>
        <_>
          <internalNodes>
            0 -1 625 1.5034619718790054e-04</internalNodes>
          <leafValues>
            1.2550020217895508e-01 -5.7333290576934814e-01</leafValues></_>
        <_>
          <internalNodes>
            0 -1 474 -1.6693386714905500e-03</internalNodes>
          <leafValues>
            3.7389761209487915e-01 -1.6638357937335968e-01</leafValues></_>
        <_>
          <internalNodes>
            0 -1 8 4.9527357332408428e-03</internalNodes>
          <leafValues>
            -1.8066802620887756e-01 3.8566479086875916e-01</leafValues></_>
        <_>
          <internalNodes>
            0 -1 590 1.0272415238432586e-05</internalNodes>
          <leafValues>
            -2.9927828907966614e-01 2.0269823074340820e-01</leafValues></_>
        <_>
          <internalNodes>
            0 -1 170 -5.1844511181116104e-03</internalNodes>
          <leafValues>
            4.3551161885261536e-01 -1.4187520742416382e-01</leafValues></_>
        <_>
          <internalNodes>
            0 -1 66 -4.5003434643149376e-03</internalNodes>
          <leafValues>
            2.9572328925132751e-01 -2.2561532258987427e-01</leafValues></_>
        <_>
          <internalNodes>
            0 -1 487 -9.9510569125413895e-03</internalNodes>
          <leafValues>
            3.4338170289993286e-01 -1.7742666602134705e-01</leafValues></_></weakClassifiers></_>
    <!-- stage 8 -->
    <_>
      <maxWeakCount>42</maxWeakCount>
      <stageThreshold>-8.2882773876190186e-01</stageThreshold>
      <weakClassifiers>
        <_>
          <internalNodes>
            0 -1 231 -1.0183869302272797e-01</internalNodes>
          <leafValues>
            3.4346505999565125e-01 -3.5377359390258789e-01</leafValues></_>
        <_>
          <internalNodes>
            0 -1 335 1.0691362433135509e-02</internalNodes>
          <leafValues>
            -2.0880872011184692e-01 4.1350197792053223e-01</leafValues></_>
        <_>
          <internalNodes>
            0 -1 421 1.0616017971187830e-04</internalNodes>
          <leafValues>
            1.3789938390254974e-01 -6.3029879331588745e-01</leafValues></_>
        <_>
          <internalNodes>
            0 -1 479 1.0407324880361557e-02</internalNodes>
          <leafValues>
            -3.1633457541465759e-01 2.2775052487850189e-01</leafValues></_>
        <_>
          <internalNodes>
            0 -1 34 -1.5659567434340715e-03</internalNodes>
          <leafValues>
            4.4642955064773560e-01 -1.7809490859508514e-01</leafValues></_>
        <_>
          <internalNodes>
            0 -1 37 7.1357714477926493e-04</internalNodes>
          <leafValues>
            -1.7450505495071411e-01 4.6967971324920654e-01</leafValues></_>
        <_>
          <internalNodes>
            0 -1 421 -1.1903158156201243e-04</internalNodes>
          <leafValues>
            -6.2791764736175537e-01 1.2207705527544022e-01</leafValues></_>
        <_>
          <internalNodes>
            0 -1 10 -1.2114056386053562e-02</internalNodes>
          <leafValues>
            4.0138313174247742e-01 -1.7604872584342957e-01</leafValues></_>
        <_>
          <internalNodes>
            0 -1 144 2.0537087693810463e-02</internalNodes>
          <leafValues>
            7.8941203653812408e-02 -7.2413939237594604e-01</leafValues></_>
        <_>
          <internalNodes>
            0 -1 172 -7.6215192675590515e-03</internalNodes>
          <leafValues>
            -6.6493880748748779e-01 7.7701859176158905e-02</leafValues></_>
        <_>
          <internalNodes>
            0 -1 613 -2.3429419379681349e-03</internalNodes>
          <leafValues>
            3.1475001573562622e-01 -2.0193044841289520e-01</leafValues></_>
        <_>
          <internalNodes>
            0 -1 692 9.4352732412517071e-04</internalNodes>
          <leafValues>
            1.5925934910774231e-01 -4.3053674697875977e-01</leafValues></_>
        <_>
          <internalNodes>
            0 -1 74 -9.8863411694765091e-03</internalNodes>
          <leafValues>
            4.5262452960014343e-01 -1.6124737262725830e-01</leafValues></_>
        <_>
          <internalNodes>
            0 -1 158 2.0461619715206325e-04</internalNodes>
          <leafValues>
            1.2644252181053162e-01 -5.6405252218246460e-01</leafValues></_>
        <_>
          <internalNodes>
            0 -1 31 -1.5195290325209498e-04</internalNodes>
          <leafValues>
            3.7787050008773804e-01 -1.7445553839206696e-01</leafValues></_>
        <_>
          <internalNodes>
            0 -1 139 -3.5756247234530747e-04</internalNodes>
          <leafValues>
            2.7486789226531982e-01 -2.4404980242252350e-01</leafValues></_>
        <_>
          <internalNodes>
            0 -1 543 -1.0676302481442690e-03</internalNodes>
          <leafValues>
            3.9602535963058472e-01 -1.4053367078304291e-01</leafValues></_>
        <_>
          <internalNodes>
            0 -1 275 -7.8197717666625977e-03</internalNodes>
          <leafValues>
            4.9907937645912170e-01 -1.3602651655673981e-01</leafValues></_>
        <_>
          <internalNodes>
            0 -1 234 2.8349491767585278e-03</internalNodes>
          <leafValues>
            1.2678806483745575e-01 -5.5959016084671021e-01</leafValues></_>
        <_>
          <internalNodes>
            0 -1 599 -1.0495046153664589e-03</internalNodes>
          <leafValues>
            1.6326519846916199e-01 -3.5361382365226746e-01</leafValues></_>
        <_>
          <internalNodes>
            0 -1 318 -6.4702481031417847e-02</internalNodes>
          <leafValues>
            3.8940656185150146e-01 -1.7813485860824585e-01</leafValues></_>
        <_>
          <internalNodes>
            0 -1 665 -1.5640721539966762e-04</internalNodes>
          <leafValues>
            3.6296576261520386e-01 -1.6438856720924377e-01</leafValues></_>
        <_>
          <internalNodes>
            0 -1 115 -2.7102408930659294e-03</internalNodes>
          <leafValues>
            2.2065253555774689e-01 -2.8883257508277893e-01</leafValues></_>
        <_>
          <internalNodes>
            0 -1 218 -4.0002458263188601e-04</internalNodes>
          <leafValues>
            -4.8936182260513306e-01 1.0866927355527878e-01</leafValues></_>
        <_>
          <internalNodes>
            0 -1 491 -1.1513469507917762e-03</internalNodes>
          <leafValues>
            3.6246681213378906e-01 -1.7457807064056396e-01</leafValues></_>
        <_>
          <internalNodes>
            0 -1 497 -1.1724228897946887e-05</internalNodes>
          <leafValues>
            2.0994603633880615e-01 -3.8672626018524170e-01</leafValues></_>
        <_>
          <internalNodes>
            0 -1 1 -3.2515283674001694e-03</internalNodes>
          <leafValues>
            -4.7175237536430359e-01 1.4352525770664215e-01</leafValues></_>
        <_>
          <internalNodes>
            0 -1 261 -5.8217076584696770e-03</internalNodes>
          <leafValues>
            3.0000874400138855e-01 -2.2890445590019226e-01</leafValues></_>
        <_>
          <internalNodes>
            0 -1 305 -3.3782748505473137e-04</internalNodes>
          <leafValues>
            2.4070651829242706e-01 -2.7874428033828735e-01</leafValues></_>
        <_>
          <internalNodes>
            0 -1 402 -2.4241151550086215e-05</internalNodes>
          <leafValues>
            2.3869340121746063e-01 -2.8550881147384644e-01</leafValues></_>
        <_>
          <internalNodes>
            0 -1 272 -1.4432225143536925e-03</internalNodes>
          <leafValues>
            -6.2459343671798706e-01 1.0075853019952774e-01</leafValues></_>
        <_>
          <internalNodes>
            0 -1 395 -8.8736880570650101e-03</internalNodes>
          <leafValues>
            5.6184655427932739e-01 -1.2007755041122437e-01</leafValues></_>
        <_>
          <internalNodes>
            0 -1 75 4.4051016448065639e-04</internalNodes>
          <leafValues>
            -1.4788219332695007e-01 4.4365900754928589e-01</leafValues></_>
        <_>
          <internalNodes>
            0 -1 634 1.3511680299416184e-04</internalNodes>
          <leafValues>
            1.3041624426841736e-01 -5.3982192277908325e-01</leafValues></_>
        <_>
          <internalNodes>
            0 -1 407 -4.9861026927828789e-03</internalNodes>
          <leafValues>
            4.2604485154151917e-01 -1.5353631973266602e-01</leafValues></_>
        <_>
          <internalNodes>
            0 -1 309 -6.9557104325213004e-06</internalNodes>
          <leafValues>
            2.1959908306598663e-01 -2.9837629199028015e-01</leafValues></_>
        <_>
          <internalNodes>
            0 -1 308 9.3651957286056131e-05</internalNodes>
          <leafValues>
            1.1493083089590073e-01 -5.5274605751037598e-01</leafValues></_>
        <_>
          <internalNodes>
            0 -1 458 3.6097072064876556e-02</internalNodes>
          <leafValues>
            -2.4091877043247223e-01 2.7090749144554138e-01</leafValues></_>
        <_>
          <internalNodes>
            0 -1 641 -3.5657489206641912e-04</internalNodes>
          <leafValues>
            1.7733475565910339e-01 -4.2012092471122742e-01</leafValues></_>
        <_>
          <internalNodes>
            0 -1 390 2.5339839048683643e-03</internalNodes>
          <leafValues>
            -1.2398308515548706e-01 5.7260608673095703e-01</leafValues></_>
        <_>
          <internalNodes>
            0 -1 194 3.8269318640232086e-02</internalNodes>
          <leafValues>
            9.7420074045658112e-02 -6.9564640522003174e-01</leafValues></_>
        <_>
          <internalNodes>
            0 -1 277 1.1320703662931919e-02</internalNodes>
          <leafValues>
            -9.2342868447303772e-02 7.5379675626754761e-01</leafValues></_></weakClassifiers></_>
    <!-- stage 9 -->
    <_>
      <maxWeakCount>40</maxWeakCount>
      <stageThreshold>-7.1797555685043335e-01</stageThreshold>
      <weakClassifiers>
        <_>
          <internalNodes>
            0 -1 489 1.2243876699358225e-04</internalNodes>
          <leafValues>
            2.8299409151077271e-01 -5.9447002410888672e-01</leafValues></_>
        <_>
          <internalNodes>
            0 -1 461 1.0277458932250738e-04</internalNodes>
          <leafValues>
            1.4041255414485931e-01 -5.4231870174407959e-01</leafValues></_>
        <_>
          <internalNodes>
            0 -1 452 -6.0912507251487114e-06</internalNodes>
          <leafValues>
            1.8610821664333344e-01 -3.7838539481163025e-01</leafValues></_>
        <_>
          <internalNodes>
            0 -1 519 1.5467045595869422e-03</internalNodes>
          <leafValues>
            -1.4993067085742950e-01 4.2264869809150696e-01</leafValues></_>
        <_>
          <internalNodes>
            0 -1 621 2.8594727627933025e-03</internalNodes>
          <leafValues>
            -3.4704148769378662e-01 1.8388675153255463e-01</leafValues></_>
        <_>
          <internalNodes>
            0 -1 181 7.1056565502658486e-05</internalNodes>
          <leafValues>
            1.0773480683565140e-01 -6.5243977308273315e-01</leafValues></_>
        <_>
          <internalNodes>
            0 -1 671 9.4229495152831078e-03</internalNodes>
          <leafValues>
            9.2431835830211639e-02 -6.7346137762069702e-01</leafValues></_>
        <_>
          <internalNodes>
            0 -1 7 2.2188225388526917e-01</internalNodes>
          <leafValues>
            -2.5592726469039917e-01 2.8509312868118286e-01</leafValues></_>
        <_>
          <internalNodes>
            0 -1 42 -2.9116729274392128e-03</internalNodes>
          <leafValues>
            3.1239104270935059e-01 -2.3341768980026245e-01</leafValues></_>
        <_>
          <internalNodes>
            0 -1 119 1.5226192772388458e-04</internalNodes>
          <leafValues>
            1.1977946013212204e-01 -4.6368575096130371e-01</leafValues></_>
        <_>
          <internalNodes>
            0 -1 349 -5.9614889323711395e-04</internalNodes>
          <leafValues>
            2.0330867171287537e-01 -3.0488765239715576e-01</leafValues></_>
        <_>
          <internalNodes>
            0 -1 173 8.0341763794422150e-02</internalNodes>
          <leafValues>
            -8.8040903210639954e-02 5.7693016529083252e-01</leafValues></_>
        <_>
          <internalNodes>
            0 -1 439 -2.3217729176394641e-04</internalNodes>
          <leafValues>
            2.0592676103115082e-01 -3.1479081511497498e-01</leafValues></_>
        <_>
          <internalNodes>
            0 -1 25 -1.2696185149252415e-03</internalNodes>
          <leafValues>
            3.1579735875129700e-01 -2.3131801187992096e-01</leafValues></_>
        <_>
          <internalNodes>
            0 -1 101 4.8162396997213364e-02</internalNodes>
          <leafValues>
            -1.3939206302165985e-01 4.3491277098655701e-01</leafValues></_>
        <_>
          <internalNodes>
            0 -1 679 1.1240240564802662e-04</internalNodes>
          <leafValues>
            1.3511197268962860e-01 -4.7085401415824890e-01</leafValues></_>
        <_>
          <internalNodes>
            0 -1 338 -9.7564058378338814e-03</internalNodes>
          <leafValues>
            4.6330702304840088e-01 -1.2975208461284637e-01</leafValues></_>
        <_>
          <internalNodes>
            0 -1 425 8.7852135766297579e-04</internalNodes>
          <leafValues>
            -1.6132564842700958e-01 3.6643964052200317e-01</leafValues></_>
        <_>
          <internalNodes>
            0 -1 19 -2.6955265551805496e-02</internalNodes>
          <leafValues>
            -7.4811089038848877e-01 7.6143175363540649e-02</leafValues></_>
        <_>
          <internalNodes>
            0 -1 103 -4.3866701424121857e-02</internalNodes>
          <leafValues>
            4.5032772421836853e-01 -1.3536290824413300e-01</leafValues></_>
        <_>
          <internalNodes>
            0 -1 49 -5.0648758187890053e-03</internalNodes>
          <leafValues>
            -4.7087672352790833e-01 1.2403054535388947e-01</leafValues></_>
        <_>
          <internalNodes>
            0 -1 593 -2.6011298177763820e-04</internalNodes>
          <leafValues>
            1.9539286196231842e-01 -2.7645376324653625e-01</leafValues></_>
        <_>
          <internalNodes>
            0 -1 581 3.5094487247988582e-04</internalNodes>
          <leafValues>
            1.3049501180648804e-01 -4.4757649302482605e-01</leafValues></_>
        <_>
          <internalNodes>
            0 -1 203 -3.7259378586895764e-04</internalNodes>
          <leafValues>
            -4.7961255908012390e-01 1.0350156575441360e-01</leafValues></_>
        <_>
          <internalNodes>
            0 -1 672 2.7581077301874757e-04</internalNodes>
          <leafValues>
            -1.2660059332847595e-01 4.8468583822250366e-01</leafValues></_>
        <_>
          <internalNodes>
            0 -1 669 -3.8259816356003284e-03</internalNodes>
          <leafValues>
            5.6292337179183960e-01 -1.1301235854625702e-01</leafValues></_>
        <_>
          <internalNodes>
            0 -1 690 -7.9708937555551529e-03</internalNodes>
          <leafValues>
            -6.2514060735702515e-01 1.0224571824073792e-01</leafValues></_>
        <_>
          <internalNodes>
            0 -1 91 1.7515954095870256e-03</internalNodes>
          <leafValues>
            8.4485679864883423e-02 -5.9980756044387817e-01</leafValues></_>
        <_>
          <internalNodes>
            0 -1 153 -1.2778449803590775e-02</internalNodes>
          <leafValues>
            5.8011698722839355e-01 -1.0508002340793610e-01</leafValues></_>
        <_>
          <internalNodes>
            0 -1 431 -1.2674349360167980e-02</internalNodes>
          <leafValues>
            3.5617959499359131e-01 -1.5277741849422455e-01</leafValues></_>
        <_>
          <internalNodes>
            0 -1 438 6.6369189880788326e-05</internalNodes>
          <leafValues>
            1.3978977501392365e-01 -4.0402749180793762e-01</leafValues></_>
        <_>
          <internalNodes>
            0 -1 293 -8.3670864114537835e-05</internalNodes>
          <leafValues>
            2.7228617668151855e-01 -2.3149731755256653e-01</leafValues></_>
        <_>
          <internalNodes>
            0 -1 132 2.8920978307723999e-02</internalNodes>
          <leafValues>
            1.1229746788740158e-01 -6.0844457149505615e-01</leafValues></_>
        <_>
          <internalNodes>
            0 -1 464 -7.5995055958628654e-03</internalNodes>
          <leafValues>
            -7.5365304946899414e-01 5.7516641914844513e-02</leafValues></_>
        <_>
          <internalNodes>
            0 -1 67 -3.6150831729173660e-03</internalNodes>
          <leafValues>
            2.4476228654384613e-01 -2.3626412451267242e-01</leafValues></_>
        <_>
          <internalNodes>
            0 -1 499 7.7504228102043271e-05</internalNodes>
          <leafValues>
            1.2496745586395264e-01 -4.4767230749130249e-01</leafValues></_>
        <_>
          <internalNodes>
            0 -1 536 -4.3561251368373632e-04</internalNodes>
          <leafValues>
            2.4414236843585968e-01 -2.0881186425685883e-01</leafValues></_>
        <_>
          <internalNodes>
            0 -1 572 6.5082313085440546e-06</internalNodes>
          <leafValues>
            -2.3572710156440735e-01 2.2572828829288483e-01</leafValues></_>
        <_>
          <internalNodes>
            0 -1 360 -3.3176533877849579e-02</internalNodes>
          <leafValues>
            4.8964598774909973e-01 -1.1012649536132812e-01</leafValues></_>
        <_>
          <internalNodes>
            0 -1 189 8.2288652658462524e-02</internalNodes>
          <leafValues>
            -1.8240857124328613e-01 3.3239057660102844e-01</leafValues></_></weakClassifiers></_>
    <!-- stage 10 -->
    <_>
      <maxWeakCount>48</maxWeakCount>
      <stageThreshold>-7.7806800603866577e-01</stageThreshold>
      <weakClassifiers>
        <_>
          <internalNodes>
            0 -1 248 -4.4129779562354088e-03</internalNodes>
          <leafValues>
            3.1681680679321289e-01 -2.9411765933036804e-01</leafValues></_>
        <_>
          <internalNodes>
            0 -1 227 9.9998870864510536e-03</internalNodes>
          <leafValues>
            -1.3715870678424835e-01 4.7973877191543579e-01</leafValues></_>
        <_>
          <internalNodes>
            0 -1 23 -1.5345475403591990e-03</internalNodes>
          <leafValues>
            3.6466529965400696e-01 -1.6746436059474945e-01</leafValues></_>
        <_>
          <internalNodes>
            0 -1 372 1.9774265587329865e-02</internalNodes>
          <leafValues>
            -1.2267504632472992e-01 6.1009556055068970e-01</leafValues></_>
        <_>
          <internalNodes>
            0 -1 533 7.7504941145889461e-05</internalNodes>
          <leafValues>
            1.4364877343177795e-01 -4.7077727317810059e-01</leafValues></_>
        <_>
          <internalNodes>
            0 -1 586 7.3954691179096699e-03</internalNodes>
          <leafValues>
            -1.1304999887943268e-01 7.1033662557601929e-01</leafValues></_>
        <_>
          <internalNodes>
            0 -1 577 -1.2553770793601871e-03</internalNodes>
          <leafValues>
            -7.0019823312759399e-01 1.0186636447906494e-01</leafValues></_>
        <_>
          <internalNodes>
            0 -1 620 -1.5922773163765669e-03</internalNodes>
          <leafValues>
            2.0326532423496246e-01 -2.5387537479400635e-01</leafValues></_>
        <_>
          <internalNodes>
            0 -1 216 -5.5563601199537516e-04</internalNodes>
          <leafValues>
            3.9189991354942322e-01 -1.4122036099433899e-01</leafValues></_>
        <_>
          <internalNodes>
            0 -1 618 -1.5390352346003056e-03</internalNodes>
          <leafValues>
            -5.5649775266647339e-01 9.7472414374351501e-02</leafValues></_>
        <_>
          <internalNodes>
            0 -1 596 9.5443123427685350e-05</internalNodes>
          <leafValues>
            8.1791706383228302e-02 -5.2940094470977783e-01</leafValues></_>
        <_>
          <internalNodes>
            0 -1 513 -6.1373983044177294e-04</internalNodes>
          <leafValues>
            2.0341940224170685e-01 -2.4119441211223602e-01</leafValues></_>
        <_>
          <internalNodes>
            0 -1 137 -6.5421550534665585e-03</internalNodes>
          <leafValues>
            3.8691934943199158e-01 -1.2466505914926529e-01</leafValues></_>
        <_>
          <internalNodes>
            0 -1 146 1.3565740664489567e-04</internalNodes>
          <leafValues>
            -1.8218459188938141e-01 2.6855263113975525e-01</leafValues></_>
        <_>
          <internalNodes>
            0 -1 45 -1.4142119325697422e-03</internalNodes>
          <leafValues>
            1.8066920340061188e-01 -2.9208558797836304e-01</leafValues></_>
        <_>
          <internalNodes>
            0 -1 193 4.3744582682847977e-02</internalNodes>
          <leafValues>
            -1.2068428099155426e-01 4.3059828877449036e-01</leafValues></_>
        <_>
          <internalNodes>
            0 -1 46 -2.1048013586550951e-03</internalNodes>
          <leafValues>
            4.1784781217575073e-01 -1.1818569153547287e-01</leafValues></_>
        <_>
          <internalNodes>
            0 -1 219 1.6273325309157372e-03</internalNodes>
          <leafValues>
            8.3981685340404510e-02 -6.4989107847213745e-01</leafValues></_>
        <_>
          <internalNodes>
            0 -1 648 1.4646344061475247e-04</internalNodes>
          <leafValues>
            -2.7486792206764221e-01 1.7609755694866180e-01</leafValues></_>
        <_>
          <internalNodes>
            0 -1 611 7.2370627894997597e-03</internalNodes>
          <leafValues>
            -1.1290734261274338e-01 5.0006812810897827e-01</leafValues></_>
        <_>
          <internalNodes>
            0 -1 235 -1.2712164781987667e-02</internalNodes>
          <leafValues>
            4.7198289632797241e-01 -9.7246363759040833e-02</leafValues></_>
        <_>
          <internalNodes>
            0 -1 518 2.0383810624480247e-04</internalNodes>
          <leafValues>
            9.2107295989990234e-02 -5.8010506629943848e-01</leafValues></_>
        <_>
          <internalNodes>
            0 -1 684 -1.1912615969777107e-02</internalNodes>
          <leafValues>
            -5.4717975854873657e-01 9.6744187176227570e-02</leafValues></_>
        <_>
          <internalNodes>
            0 -1 417 -6.8724565207958221e-03</internalNodes>
          <leafValues>
            -5.2718377113342285e-01 9.5065437257289886e-02</leafValues></_>
        <_>
          <internalNodes>
            0 -1 393 -8.0268946476280689e-05</internalNodes>
          <leafValues>
            -4.8025527596473694e-01 1.1025226116180420e-01</leafValues></_>
        <_>
          <internalNodes>
            0 -1 246 -1.1258700396865606e-03</internalNodes>
          <leafValues>
            1.9349503517150879e-01 -2.7833434939384460e-01</leafValues></_>
        <_>
          <internalNodes>
            0 -1 561 -1.6400988679379225e-03</internalNodes>
          <leafValues>
            3.7410947680473328e-01 -1.3528478145599365e-01</leafValues></_>
        <_>
          <internalNodes>
            0 -1 57 3.0208413954824209e-04</internalNodes>
          <leafValues>
            1.1178228259086609e-01 -4.8594057559967041e-01</leafValues></_>
        <_>
          <internalNodes>
            0 -1 550 -3.0625058570876718e-04</internalNodes>
          <leafValues>
            1.8378680944442749e-01 -2.5982186198234558e-01</leafValues></_>
        <_>
          <internalNodes>
            0 -1 258 -5.9349171351641417e-04</internalNodes>
          <leafValues>
            5.9288126230239868e-01 -9.0599812567234039e-02</leafValues></_>
        <_>
          <internalNodes>
            0 -1 167 -1.6782280802726746e-01</internalNodes>
          <leafValues>
            -8.6723548173904419e-01 6.4931489527225494e-02</leafValues></_>
        <_>
          <internalNodes>
            0 -1 559 3.4549171105027199e-03</internalNodes>
          <leafValues>
            -1.3037623465061188e-01 4.1889533400535583e-01</leafValues></_>
        <_>
          <internalNodes>
            0 -1 448 2.0433850586414337e-03</internalNodes>
          <leafValues>
            -6.4988911151885986e-02 7.3364382982254028e-01</leafValues></_>
        <_>
          <internalNodes>
            0 -1 443 -1.7406381666660309e-03</internalNodes>
          <leafValues>
            3.2950195670127869e-01 -1.4902868866920471e-01</leafValues></_>
        <_>
          <internalNodes>
            0 -1 688 6.2325648286787327e-06</internalNodes>
          <leafValues>
            -3.3840098977088928e-01 1.5760661661624908e-01</leafValues></_>
        <_>
          <internalNodes>
            0 -1 433 -8.6440437007695436e-04</internalNodes>
          <leafValues>
            2.6477518677711487e-01 -1.8683627247810364e-01</leafValues></_>
        <_>
          <internalNodes>
            0 -1 434 -8.0659259110689163e-03</internalNodes>
          <leafValues>
            4.9595567584037781e-01 -1.0257589817047119e-01</leafValues></_>
        <_>
          <internalNodes>
            0 -1 266 -1.8438283354043961e-02</internalNodes>
          <leafValues>
            5.1226067543029785e-01 -8.7580032646656036e-02</leafValues></_>
        <_>
          <internalNodes>
            0 -1 642 -7.2854491882026196e-03</internalNodes>
          <leafValues>
            6.2603539228439331e-01 -7.9683750867843628e-02</leafValues></_>
        <_>
          <internalNodes>
            0 -1 542 -1.3924067839980125e-02</internalNodes>
          <leafValues>
            -6.7685192823410034e-01 8.9512571692466736e-02</leafValues></_>
        <_>
          <internalNodes>
            0 -1 505 -1.2859981507062912e-04</internalNodes>
          <leafValues>
            2.1868734061717987e-01 -2.2331422567367554e-01</leafValues></_>
        <_>
          <internalNodes>
            0 -1 164 3.3738510683178902e-04</internalNodes>
          <leafValues>
            -1.9464747607707977e-01 2.5139659643173218e-01</leafValues></_>
        <_>
          <internalNodes>
            0 -1 538 2.5385018670931458e-04</internalNodes>
          <leafValues>
            9.8456792533397675e-02 -5.4391753673553467e-01</leafValues></_>
        <_>
          <internalNodes>
            0 -1 334 -5.4594483226537704e-03</internalNodes>
          <leafValues>
            4.2319354414939880e-01 -1.2669631838798523e-01</leafValues></_>
        <_>
          <internalNodes>
            0 -1 597 -2.7195340953767300e-04</internalNodes>
          <leafValues>
            4.0983843803405762e-01 -1.1744400858879089e-01</leafValues></_>
        <_>
          <internalNodes>
            0 -1 569 -6.6839437931776047e-04</internalNodes>
          <leafValues>
            -4.4173920154571533e-01 1.1854682862758636e-01</leafValues></_>
        <_>
          <internalNodes>
            0 -1 430 5.7844696566462517e-03</internalNodes>
          <leafValues>
            -1.4616851508617401e-01 3.7338110804557800e-01</leafValues></_>
        <_>
          <internalNodes>
            0 -1 490 -5.0108209252357483e-03</internalNodes>
          <leafValues>
            -4.8487466573715210e-01 9.7485713660717010e-02</leafValues></_></weakClassifiers></_>
    <!-- stage 11 -->
    <_>
      <maxWeakCount>45</maxWeakCount>
      <stageThreshold>-7.1444243192672729e-01</stageThreshold>
      <weakClassifiers>
        <_>
          <internalNodes>
            0 -1 60 -2.3433503229171038e-03</internalNodes>
          <leafValues>
            3.2232704758644104e-01 -2.3076923191547394e-01</leafValues></_>
        <_>
          <internalNodes>
            0 -1 631 -1.0170238092541695e-03</internalNodes>
          <leafValues>
            1.4145803451538086e-01 -4.2380365729331970e-01</leafValues></_>
        <_>
          <internalNodes>
            0 -1 394 1.3907662359997630e-03</internalNodes>
          <leafValues>
            -1.6031131148338318e-01 3.2350015640258789e-01</leafValues></_>
        <_>
          <internalNodes>
            0 -1 251 -7.7695660293102264e-03</internalNodes>
          <leafValues>
            5.6815314292907715e-01 -1.0530116409063339e-01</leafValues></_>
        <_>
          <internalNodes>
            0 -1 61 1.2535715475678444e-02</internalNodes>
          <leafValues>
            -1.3983525335788727e-01 4.9580270051956177e-01</leafValues></_>
        <_>
          <internalNodes>
            0 -1 626 -3.1083727662917227e-05</internalNodes>
          <leafValues>
            -4.6676585078239441e-01 1.3126519322395325e-01</leafValues></_>
        <_>
          <internalNodes>
            0 -1 121 8.0935365986078978e-04</internalNodes>
          <leafValues>
            1.1675148457288742e-01 -4.7109800577163696e-01</leafValues></_>
        <_>
          <internalNodes>
            0 -1 419 -3.5852785222232342e-03</internalNodes>
          <leafValues>
            1.6176077723503113e-01 -2.8112491965293884e-01</leafValues></_>
        <_>
          <internalNodes>
            0 -1 388 -2.6621446013450623e-03</internalNodes>
          <leafValues>
            3.6963331699371338e-01 -1.2631344795227051e-01</leafValues></_>
        <_>
          <internalNodes>
            0 -1 426 -3.9638592861592770e-03</internalNodes>
          <leafValues>
            3.9672181010246277e-01 -1.5191985666751862e-01</leafValues></_>
        <_>
          <internalNodes>
            0 -1 220 -5.6039784103631973e-03</internalNodes>
          <leafValues>
            4.9636766314506531e-01 -1.0711508244276047e-01</leafValues></_>
        <_>
          <internalNodes>
            0 -1 157 4.2246138036716729e-05</internalNodes>
          <leafValues>
            1.0238876193761826e-01 -6.1030310392379761e-01</leafValues></_>
        <_>
          <internalNodes>
            0 -1 191 -1.0684614535421133e-03</internalNodes>
          <leafValues>
            5.7965284585952759e-01 -9.3681514263153076e-02</leafValues></_>
        <_>
          <internalNodes>
            0 -1 529 2.3184781894087791e-03</internalNodes>
          <leafValues>
            1.2349142879247665e-01 -4.5307826995849609e-01</leafValues></_>
        <_>
          <internalNodes>
            0 -1 463 3.4859171137213707e-03</internalNodes>
          <leafValues>
            -1.9260978698730469e-01 2.6457732915878296e-01</leafValues></_>
        <_>
          <internalNodes>
            0 -1 169 -6.3700047321617603e-03</internalNodes>
          <leafValues>
            -6.2000936269760132e-01 7.6282113790512085e-02</leafValues></_>
        <_>
          <internalNodes>
            0 -1 126 2.9921025037765503e-01</internalNodes>
          <leafValues>
            -1.1483851820230484e-01 4.7086346149444580e-01</leafValues></_>
        <_>
          <internalNodes>
            0 -1 325 -1.2924409238621593e-03</internalNodes>
          <leafValues>
            3.4189555048942566e-01 -1.6981135308742523e-01</leafValues></_>
        <_>
          <internalNodes>
            0 -1 681 4.2681926861405373e-03</internalNodes>
          <leafValues>
            -1.0769842565059662e-01 4.8157104849815369e-01</leafValues></_>
        <_>
          <internalNodes>
            0 -1 603 -2.2167788119986653e-04</internalNodes>
          <leafValues>
            -3.7872618436813354e-01 1.3255557417869568e-01</leafValues></_>
        <_>
          <internalNodes>
            0 -1 381 -4.8963762819766998e-02</internalNodes>
          <leafValues>
            -7.9615634679794312e-01 5.0039935857057571e-02</leafValues></_>
        <_>
          <internalNodes>
            0 -1 317 2.7170713990926743e-02</internalNodes>
          <leafValues>
            -1.3514652848243713e-01 3.6825275421142578e-01</leafValues></_>
        <_>
          <internalNodes>
            0 -1 359 4.2730346322059631e-02</internalNodes>
          <leafValues>
            -1.2776547670364380e-01 3.8504061102867126e-01</leafValues></_>
        <_>
          <internalNodes>
            0 -1 377 -8.9878616854548454e-03</internalNodes>
          <leafValues>
            2.9701280593872070e-01 -1.7164070904254913e-01</leafValues></_>
        <_>
          <internalNodes>
            0 -1 676 8.0305727897211909e-04</internalNodes>
          <leafValues>
            1.2454777956008911e-01 -4.6285629272460938e-01</leafValues></_>
        <_>
          <internalNodes>
            0 -1 362 6.0103257419541478e-04</internalNodes>
          <leafValues>
            1.5318267047405243e-01 -3.1439685821533203e-01</leafValues></_>
        <_>
          <internalNodes>
            0 -1 77 1.0469793342053890e-03</internalNodes>
          <leafValues>
            -1.1086566001176834e-01 4.5343893766403198e-01</leafValues></_>
        <_>
          <internalNodes>
            0 -1 465 -1.2787682935595512e-03</internalNodes>
          <leafValues>
            3.1719729304313660e-01 -1.5511539578437805e-01</leafValues></_>
        <_>
          <internalNodes>
            0 -1 114 -7.0492314989678562e-06</internalNodes>
          <leafValues>
            1.4423632621765137e-01 -3.9935657382011414e-01</leafValues></_>
        <_>
          <internalNodes>
            0 -1 663 -7.5532961636781693e-04</internalNodes>
          <leafValues>
            4.4646835327148438e-01 -1.2119677662849426e-01</leafValues></_>
        <_>
          <internalNodes>
            0 -1 72 5.6448805844411254e-04</internalNodes>
          <leafValues>
            -1.2904569506645203e-01 3.7753719091415405e-01</leafValues></_>
        <_>
          <internalNodes>
            0 -1 141 -5.7065188884735107e-03</internalNodes>
          <leafValues>
            -6.7116332054138184e-01 8.1407934427261353e-02</leafValues></_>
        <_>
          <internalNodes>
            0 -1 548 -8.9041981846094131e-04</internalNodes>
          <leafValues>
            2.3674148321151733e-01 -2.2122870385646820e-01</leafValues></_>
        <_>
          <internalNodes>
            0 -1 635 2.1264591487124562e-04</internalNodes>
          <leafValues>
            1.0166676342487335e-01 -5.2717137336730957e-01</leafValues></_>
        <_>
          <internalNodes>
            0 -1 368 4.4386861845850945e-03</internalNodes>
          <leafValues>
            9.2294506728649139e-02 -4.7188022732734680e-01</leafValues></_>
        <_>
          <internalNodes>
            0 -1 658 -1.0919950436800718e-03</internalNodes>
          <leafValues>
            -4.6864405274391174e-01 9.1076076030731201e-02</leafValues></_>
        <_>
          <internalNodes>
            0 -1 520 -2.1380483303801157e-05</internalNodes>
          <leafValues>
            2.0044554769992828e-01 -2.5582465529441833e-01</leafValues></_>
        <_>
          <internalNodes>
            0 -1 178 1.2103472836315632e-03</internalNodes>
          <leafValues>
            -1.6169787943363190e-01 3.3129888772964478e-01</leafValues></_>
        <_>
          <internalNodes>
            0 -1 148 1.7188558558700606e-05</internalNodes>
          <leafValues>
            -2.0381072163581848e-01 2.3544158041477203e-01</leafValues></_>
        <_>
          <internalNodes>
            0 -1 174 -5.3609970957040787e-02</internalNodes>
          <leafValues>
            -6.6819703578948975e-01 7.6848976314067841e-02</leafValues></_>
        <_>
          <internalNodes>
            0 -1 221 -2.6888535358011723e-03</internalNodes>
          <leafValues>
            3.5320648550987244e-01 -1.6328816115856171e-01</leafValues></_>
        <_>
          <internalNodes>
            0 -1 336 -4.5003704726696014e-03</internalNodes>
          <leafValues>
            -8.2563614845275879e-01 6.7951805889606476e-02</leafValues></_>
        <_>
          <internalNodes>
            0 -1 316 -1.2090336531400681e-03</internalNodes>
          <leafValues>
            2.7253508567810059e-01 -1.8075315654277802e-01</leafValues></_>
        <_>
          <internalNodes>
            0 -1 449 -2.7966380119323730e-02</internalNodes>
          <leafValues>
            -6.6909217834472656e-01 7.9216033220291138e-02</leafValues></_>
        <_>
          <internalNodes>
            0 -1 310 -6.5588024444878101e-03</internalNodes>
          <leafValues>
            -7.1966719627380371e-01 6.2251046299934387e-02</leafValues></_></weakClassifiers></_>
    <!-- stage 12 -->
    <_>
      <maxWeakCount>51</maxWeakCount>
      <stageThreshold>-7.1994304656982422e-01</stageThreshold>
      <weakClassifiers>
        <_>
          <internalNodes>
            0 -1 468 -1.4949417163734324e-05</internalNodes>
          <leafValues>
            3.1380107998847961e-01 -2.3702031373977661e-01</leafValues></_>
        <_>
          <internalNodes>
            0 -1 228 6.5290783531963825e-03</internalNodes>
          <leafValues>
            -1.4919990301132202e-01 3.6814489960670471e-01</leafValues></_>
        <_>
          <internalNodes>
            0 -1 592 -1.2603212380781770e-03</internalNodes>
          <leafValues>
            1.8724551796913147e-01 -3.1880411505699158e-01</leafValues></_>
        <_>
          <internalNodes>
            0 -1 196 -8.2915619015693665e-02</internalNodes>
          <leafValues>
            2.2756065428256989e-01 -2.2827364504337311e-01</leafValues></_>
        <_>
          <internalNodes>
            0 -1 40 -2.7617739979177713e-03</internalNodes>
          <leafValues>
            1.8154154717922211e-01 -2.8682169318199158e-01</leafValues></_>
        <_>
          <internalNodes>
            0 -1 595 -2.6254772819811478e-05</internalNodes>
          <leafValues>
            -4.3156874179840088e-01 1.0906721651554108e-01</leafValues></_>
        <_>
          <internalNodes>
            0 -1 185 -7.9871267080307007e-03</internalNodes>
          <leafValues>
            -4.4507360458374023e-01 1.1750623583793640e-01</leafValues></_>
        <_>
          <internalNodes>
            0 -1 441 -1.6822802135720849e-03</internalNodes>
          <leafValues>
            3.7413117289543152e-01 -1.2434801459312439e-01</leafValues></_>
        <_>
          <internalNodes>
            0 -1 59 5.0567259313538671e-04</internalNodes>
          <leafValues>
            9.3639686703681946e-02 -5.7149696350097656e-01</leafValues></_>
        <_>
          <internalNodes>
            0 -1 150 4.1669430211186409e-03</internalNodes>
          <leafValues>
            -8.2166753709316254e-02 6.0224634408950806e-01</leafValues></_>
        <_>
          <internalNodes>
            0 -1 337 -5.8291498571634293e-03</internalNodes>
          <leafValues>
            2.8160473704338074e-01 -1.7096830904483795e-01</leafValues></_>
        <_>
          <internalNodes>
            0 -1 154 -5.8812211136682890e-06</internalNodes>
          <leafValues>
            1.5599986910820007e-01 -3.1376507878303528e-01</leafValues></_>
        <_>
          <internalNodes>
            0 -1 93 1.5367043670266867e-04</internalNodes>
          <leafValues>
            1.3237710297107697e-01 -3.3115398883819580e-01</leafValues></_>
        <_>
          <internalNodes>
            0 -1 96 4.3397088302299380e-04</internalNodes>
          <leafValues>
            1.3044185936450958e-01 -3.8538813591003418e-01</leafValues></_>
        <_>
          <internalNodes>
            0 -1 483 -2.7253092266619205e-03</internalNodes>
          <leafValues>
            2.1644884347915649e-01 -2.1636983752250671e-01</leafValues></_>
        <_>
          <internalNodes>
            0 -1 255 -8.4057703614234924e-02</internalNodes>
          <leafValues>
            5.2019309997558594e-01 -1.0249007493257523e-01</leafValues></_>
        <_>
          <internalNodes>
            0 -1 322 -1.9305510795675218e-04</internalNodes>
          <leafValues>
            2.3437048494815826e-01 -2.2362101078033447e-01</leafValues></_>
        <_>
          <internalNodes>
            0 -1 485 -3.1789066269993782e-04</internalNodes>
          <leafValues>
            2.0429743826389313e-01 -2.2162340581417084e-01</leafValues></_>
        <_>
          <internalNodes>
            0 -1 319 -3.3208867534995079e-03</internalNodes>
          <leafValues>
            -4.1892361640930176e-01 1.1288462579250336e-01</leafValues></_>
        <_>
          <internalNodes>
            0 -1 576 -1.2912947568111122e-04</internalNodes>
          <leafValues>
            3.6234742403030396e-01 -1.4057427644729614e-01</leafValues></_>
        <_>
          <internalNodes>
            0 -1 73 -2.5764747988432646e-04</internalNodes>
          <leafValues>
            2.1232551336288452e-01 -2.1601501107215881e-01</leafValues></_>
        <_>
          <internalNodes>
            0 -1 455 -5.2211661823093891e-03</internalNodes>
          <leafValues>
            3.6230832338333130e-01 -1.1690758913755417e-01</leafValues></_>
        <_>
          <internalNodes>
            0 -1 644 6.4274249598383904e-03</internalNodes>
          <leafValues>
            -8.7098337709903717e-02 4.7134074568748474e-01</leafValues></_>
        <_>
          <internalNodes>
            0 -1 358 2.3574866354465485e-03</internalNodes>
          <leafValues>
            9.9906265735626221e-02 -5.0323116779327393e-01</leafValues></_>
        <_>
          <internalNodes>
            0 -1 105 1.1129122227430344e-02</internalNodes>
          <leafValues>
            -8.8035821914672852e-02 6.0218220949172974e-01</leafValues></_>
        <_>
          <internalNodes>
            0 -1 35 6.1539523303508759e-03</internalNodes>
          <leafValues>
            1.1346587538719177e-01 -4.6672040224075317e-01</leafValues></_>
        <_>
          <internalNodes>
            0 -1 254 -8.3089200779795647e-03</internalNodes>
          <leafValues>
            6.9548577070236206e-01 -7.2941228747367859e-02</leafValues></_>
        <_>
          <internalNodes>
            0 -1 253 2.8899176977574825e-03</internalNodes>
          <leafValues>
            -1.1149075627326965e-01 4.2930299043655396e-01</leafValues></_>
        <_>
          <internalNodes>
            0 -1 245 -4.3860161677002907e-03</internalNodes>
          <leafValues>
            4.3023192882537842e-01 -1.0018734633922577e-01</leafValues></_>
        <_>
          <internalNodes>
            0 -1 607 7.0751862949691713e-05</internalNodes>
          <leafValues>
            1.1409339308738708e-01 -4.3765476346015930e-01</leafValues></_>
        <_>
          <internalNodes>
            0 -1 331 -1.6872407868504524e-03</internalNodes>
          <leafValues>
            1.5602919459342957e-01 -2.9571282863616943e-01</leafValues></_>
        <_>
          <internalNodes>
            0 -1 450 5.8867009356617928e-03</internalNodes>
          <leafValues>
            -7.5982414186000824e-02 6.6346007585525513e-01</leafValues></_>
        <_>
          <internalNodes>
            0 -1 330 9.0157904196530581e-05</internalNodes>
          <leafValues>
            1.0629672557115555e-01 -4.8898610472679138e-01</leafValues></_>
        <_>
          <internalNodes>
            0 -1 343 -3.9180666208267212e-03</internalNodes>
          <leafValues>
            3.0171033740043640e-01 -1.5745566785335541e-01</leafValues></_>
        <_>
          <internalNodes>
            0 -1 65 1.2224242091178894e-01</internalNodes>
          <leafValues>
            -1.6298824548721313e-01 2.9395440220832825e-01</leafValues></_>
        <_>
          <internalNodes>
            0 -1 29 -3.0359155498445034e-03</internalNodes>
          <leafValues>
            3.3401879668235779e-01 -1.4484620094299316e-01</leafValues></_>
        <_>
          <internalNodes>
            0 -1 36 5.6411558762192726e-04</internalNodes>
          <leafValues>
            -1.1122191697359085e-01 4.3788015842437744e-01</leafValues></_>
        <_>
          <internalNodes>
            0 -1 298 -4.4825877994298935e-03</internalNodes>
          <leafValues>
            -5.7077097892761230e-01 8.5604988038539886e-02</leafValues></_>
        <_>
          <internalNodes>
            0 -1 575 -7.8186560422182083e-03</internalNodes>
          <leafValues>
            5.8343464136123657e-01 -8.0283381044864655e-02</leafValues></_>
        <_>
          <internalNodes>
            0 -1 544 -1.3636932708323002e-03</internalNodes>
          <leafValues>
            4.7086560726165771e-01 -9.0886533260345459e-02</leafValues></_>
        <_>
          <internalNodes>
            0 -1 475 1.0792703833431005e-03</internalNodes>
          <leafValues>
            1.1773861944675446e-01 -4.3959000706672668e-01</leafValues></_>
        <_>
          <internalNodes>
            0 -1 478 -1.6427808441221714e-03</internalNodes>
          <leafValues>
            3.0617526173591614e-01 -1.6205424070358276e-01</leafValues></_>
        <_>
          <internalNodes>
            0 -1 570 6.3837869674898684e-05</internalNodes>
          <leafValues>
            -2.0928397774696350e-01 2.2552999854087830e-01</leafValues></_>
        <_>
          <internalNodes>
            0 -1 401 -1.5397591050714254e-03</internalNodes>
          <leafValues>
            2.4008184671401978e-01 -1.9395826756954193e-01</leafValues></_>
        <_>
          <internalNodes>
            0 -1 598 -2.5642204564064741e-03</internalNodes>
          <leafValues>
            -7.8600138425827026e-01 5.9619247913360596e-02</leafValues></_>
        <_>
          <internalNodes>
            0 -1 190 1.6342077287845314e-04</internalNodes>
          <leafValues>
            -1.5205930173397064e-01 3.3872544765472412e-01</leafValues></_>
        <_>
          <internalNodes>
            0 -1 486 7.2912424802780151e-02</internalNodes>
          <leafValues>
            -1.1922662705183029e-01 4.3087473511695862e-01</leafValues></_>
        <_>
          <internalNodes>
            0 -1 84 -5.6325979530811310e-03</internalNodes>
          <leafValues>
            3.6154457926750183e-01 -1.3345043361186981e-01</leafValues></_>
        <_>
          <internalNodes>
            0 -1 250 6.5036341547966003e-02</internalNodes>
          <leafValues>
            -6.5080888569355011e-02 6.9048953056335449e-01</leafValues></_>
        <_>
          <internalNodes>
            0 -1 466 -4.2850640602409840e-04</internalNodes>
          <leafValues>
            1.5889036655426025e-01 -3.4985178709030151e-01</leafValues></_>
        <_>
          <internalNodes>
            0 -1 582 -1.0774746537208557e-02</internalNodes>
          <leafValues>
            6.4839136600494385e-01 -7.7680744230747223e-02</leafValues></_></weakClassifiers></_>
    <!-- stage 13 -->
    <_>
      <maxWeakCount>48</maxWeakCount>
      <stageThreshold>-6.5514302253723145e-01</stageThreshold>
      <weakClassifiers>
        <_>
          <internalNodes>
            0 -1 97 -1.3512453064322472e-02</internalNodes>
          <leafValues>
            3.3930024504661560e-01 -2.2504892945289612e-01</leafValues></_>
        <_>
          <internalNodes>
            0 -1 102 3.5486626625061035e-01</internalNodes>
          <leafValues>
            -1.4597748219966888e-01 3.6377778649330139e-01</leafValues></_>
        <_>
          <internalNodes>
            0 -1 679 -1.4136190293356776e-04</internalNodes>
          <leafValues>
            -5.2671098709106445e-01 1.0042332112789154e-01</leafValues></_>
        <_>
          <internalNodes>
            0 -1 651 -1.0998428333550692e-03</internalNodes>
          <leafValues>
            2.6966652274131775e-01 -1.8715906143188477e-01</leafValues></_>
        <_>
          <internalNodes>
            0 -1 263 -2.5760963559150696e-02</internalNodes>
          <leafValues>
            4.1630637645721436e-01 -1.7788684368133545e-01</leafValues></_>
        <_>
          <internalNodes>
            0 -1 482 9.1671230620704591e-05</internalNodes>
          <leafValues>
            1.1020580679178238e-01 -5.2404409646987915e-01</leafValues></_>
        <_>
          <internalNodes>
            0 -1 51 -1.4588229823857546e-03</internalNodes>
          <leafValues>
            1.1834169179201126e-01 -3.6833506822586060e-01</leafValues></_>
        <_>
          <internalNodes>
            0 -1 588 -1.4785809908062220e-03</internalNodes>
          <leafValues>
            3.3166459202766418e-01 -1.3718214631080627e-01</leafValues></_>
        <_>
          <internalNodes>
            0 -1 21 4.6536032459698617e-04</internalNodes>
          <leafValues>
            -1.0163775086402893e-01 3.9208590984344482e-01</leafValues></_>
        <_>
          <internalNodes>
            0 -1 81 -1.4845054829493165e-03</internalNodes>
          <leafValues>
            4.3069493770599365e-01 -1.2853595614433289e-01</leafValues></_>
        <_>
          <internalNodes>
            0 -1 602 -1.2048932258039713e-03</internalNodes>
          <leafValues>
            -5.3505426645278931e-01 8.2938626408576965e-02</leafValues></_>
        <_>
          <internalNodes>
            0 -1 374 1.2864833697676659e-03</internalNodes>
          <leafValues>
            7.5124479830265045e-02 -5.1956266164779663e-01</leafValues></_>
        <_>
          <internalNodes>
            0 -1 296 4.7610709443688393e-03</internalNodes>
          <leafValues>
            -8.9399829506874084e-02 5.1553976535797119e-01</leafValues></_>
        <_>
          <internalNodes>
            0 -1 527 -4.4666142202913761e-03</internalNodes>
          <leafValues>
            4.3819069862365723e-01 -9.4829894602298737e-02</leafValues></_>
        <_>
          <internalNodes>
            0 -1 457 -4.6131486305966973e-04</internalNodes>
          <leafValues>
            2.3371230065822601e-01 -1.9889685511589050e-01</leafValues></_>
        <_>
          <internalNodes>
            0 -1 166 9.9107087589800358e-04</internalNodes>
          <leafValues>
            -1.9620093703269958e-01 2.2276934981346130e-01</leafValues></_>
        <_>
          <internalNodes>
            0 -1 18 3.0804052948951721e-03</internalNodes>
          <leafValues>
            1.6111974418163300e-01 -3.5287499427795410e-01</leafValues></_>
        <_>
          <internalNodes>
            0 -1 207 7.5728278607130051e-03</internalNodes>
          <leafValues>
            -1.0234944522380829e-01 5.2817213535308838e-01</leafValues></_>
        <_>
          <internalNodes>
            0 -1 601 -4.4895865721628070e-04</internalNodes>
          <leafValues>
            1.6160649061203003e-01 -3.3048260211944580e-01</leafValues></_>
        <_>
          <internalNodes>
            0 -1 332 9.1136229457333684e-04</internalNodes>
          <leafValues>
            -1.8862995505332947e-01 2.5815591216087341e-01</leafValues></_>
        <_>
          <internalNodes>
            0 -1 656 -3.1580544600728899e-05</internalNodes>
          <leafValues>
            -5.3347671031951904e-01 9.5663063228130341e-02</leafValues></_>
        <_>
          <internalNodes>
            0 -1 589 -6.2746386975049973e-03</internalNodes>
          <leafValues>
            -5.8653348684310913e-01 7.3792368173599243e-02</leafValues></_>
        <_>
          <internalNodes>
            0 -1 560 -3.5807532258331776e-03</internalNodes>
          <leafValues>
            4.3730172514915466e-01 -1.1114231497049332e-01</leafValues></_>
        <_>
          <internalNodes>
            0 -1 453 6.9559289840981364e-05</internalNodes>
          <leafValues>
            9.8103865981101990e-02 -4.9879214167594910e-01</leafValues></_>
        <_>
          <internalNodes>
            0 -1 327 -3.5654827952384949e-02</internalNodes>
          <leafValues>
            7.4832898378372192e-01 -6.9256976246833801e-02</leafValues></_>
        <_>
          <internalNodes>
            0 -1 670 -1.7455667257308960e-03</internalNodes>
          <leafValues>
            4.2077276110649109e-01 -1.1378152668476105e-01</leafValues></_>
        <_>
          <internalNodes>
            0 -1 460 -7.0925807813182473e-04</internalNodes>
          <leafValues>
            2.4864542484283447e-01 -1.9240695238113403e-01</leafValues></_>
        <_>
          <internalNodes>
            0 -1 324 -1.3333493843674660e-02</internalNodes>
          <leafValues>
            5.3236287832260132e-01 -9.0539619326591492e-02</leafValues></_>
        <_>
          <internalNodes>
            0 -1 445 -1.9646860891953111e-04</internalNodes>
          <leafValues>
            2.4951925873756409e-01 -1.8915884196758270e-01</leafValues></_>
        <_>
          <internalNodes>
            0 -1 416 -5.0092237070202827e-03</internalNodes>
          <leafValues>
            2.5073221325874329e-01 -1.9239053130149841e-01</leafValues></_>
        <_>
          <internalNodes>
            0 -1 342 -4.9092737026512623e-04</internalNodes>
          <leafValues>
            2.4477624893188477e-01 -2.0000836253166199e-01</leafValues></_>
        <_>
          <internalNodes>
            0 -1 230 1.0028335452079773e-01</internalNodes>
          <leafValues>
            -1.2650205194950104e-01 4.7202312946319580e-01</leafValues></_>
        <_>
          <internalNodes>
            0 -1 606 -1.6673417121637613e-05</internalNodes>
          <leafValues>
            1.8787287175655365e-01 -2.9366743564605713e-01</leafValues></_>
        <_>
          <internalNodes>
            0 -1 237 -1.1779118329286575e-02</internalNodes>
          <leafValues>
            3.7248557806015015e-01 -1.3943047821521759e-01</leafValues></_>
        <_>
          <internalNodes>
            0 -1 511 -3.6019808612763882e-04</internalNodes>
          <leafValues>
            2.8711277246475220e-01 -1.7272315919399261e-01</leafValues></_>
        <_>
          <internalNodes>
            0 -1 502 -2.3239753209054470e-03</internalNodes>
          <leafValues>
            4.0739369392395020e-01 -1.3134734332561493e-01</leafValues></_>
        <_>
          <internalNodes>
            0 -1 240 -1.2129514943808317e-03</internalNodes>
          <leafValues>
            -6.4497601985931396e-01 8.0703422427177429e-02</leafValues></_>
        <_>
          <internalNodes>
            0 -1 87 1.8023526354227215e-04</internalNodes>
          <leafValues>
            -2.1149352192878723e-01 2.1914738416671753e-01</leafValues></_>
        <_>
          <internalNodes>
            0 -1 89 3.0008039902895689e-04</internalNodes>
          <leafValues>
            -1.6367511451244354e-01 2.8298398852348328e-01</leafValues></_>
        <_>
          <internalNodes>
            0 -1 365 -7.5894128531217575e-03</internalNodes>
          <leafValues>
            3.4835821390151978e-01 -1.3378311693668365e-01</leafValues></_>
        <_>
          <internalNodes>
            0 -1 405 -1.3580365106463432e-02</internalNodes>
          <leafValues>
            2.5482380390167236e-01 -1.8614846467971802e-01</leafValues></_>
        <_>
          <internalNodes>
            0 -1 260 -4.1930861771106720e-03</internalNodes>
          <leafValues>
            6.6155838966369629e-01 -7.2034336626529694e-02</leafValues></_>
        <_>
          <internalNodes>
            0 -1 268 -3.7374002858996391e-03</internalNodes>
          <leafValues>
            -5.2764427661895752e-01 9.5638997852802277e-02</leafValues></_>
        <_>
          <internalNodes>
            0 -1 432 -1.4525940641760826e-02</internalNodes>
          <leafValues>
            3.2638001441955566e-01 -1.4773407578468323e-01</leafValues></_>
        <_>
          <internalNodes>
            0 -1 367 9.8522531334310770e-04</internalNodes>
          <leafValues>
            7.0971325039863586e-02 -7.0842570066452026e-01</leafValues></_>
        <_>
          <internalNodes>
            0 -1 163 -5.2769691683351994e-04</internalNodes>
          <leafValues>
            4.4830682873725891e-01 -1.3719880580902100e-01</leafValues></_>
        <_>
          <internalNodes>
            0 -1 532 -3.2268796348944306e-04</internalNodes>
          <leafValues>
            4.2434486746788025e-01 -1.1372554302215576e-01</leafValues></_>
        <_>
          <internalNodes>
            0 -1 404 -3.9486894384026527e-03</internalNodes>
          <leafValues>
            3.5639274120330811e-01 -1.4560256898403168e-01</leafValues></_></weakClassifiers></_>
    <!-- stage 14 -->
    <_>
      <maxWeakCount>50</maxWeakCount>
      <stageThreshold>-6.5029507875442505e-01</stageThreshold>
      <weakClassifiers>
        <_>
          <internalNodes>
            0 -1 412 1.0414833377581090e-04</internalNodes>
          <leafValues>
            2.9027679562568665e-01 -3.2326284050941467e-01</leafValues></_>
        <_>
          <internalNodes>
            0 -1 224 6.1056466620357241e-06</internalNodes>
          <leafValues>
            -2.8397300839424133e-01 1.7098045349121094e-01</leafValues></_>
        <_>
          <internalNodes>
            0 -1 480 7.7685217547696084e-05</internalNodes>
          <leafValues>
            1.3226129114627838e-01 -4.7200071811676025e-01</leafValues></_>
        <_>
          <internalNodes>
            0 -1 85 1.0583053808659315e-03</internalNodes>
          <leafValues>
            -1.1891596764326096e-01 4.7884202003479004e-01</leafValues></_>
        <_>
          <internalNodes>
            0 -1 211 2.8086937963962555e-02</internalNodes>
          <leafValues>
            -1.3471855223178864e-01 4.7749975323677063e-01</leafValues></_>
        <_>
          <internalNodes>
            0 -1 252 1.3515605591237545e-02</internalNodes>
          <leafValues>
            -1.5230517089366913e-01 4.0237212181091309e-01</leafValues></_>
        <_>
          <internalNodes>
            0 -1 535 -8.2279443740844727e-03</internalNodes>
          <leafValues>
            -6.1311560869216919e-01 1.2056723982095718e-01</leafValues></_>
        <_>
          <internalNodes>
            0 -1 202 -4.7712665051221848e-02</internalNodes>
          <leafValues>
            4.0085771679878235e-01 -1.3708470761775970e-01</leafValues></_>
        <_>
          <internalNodes>
            0 -1 256 -7.1164980530738831e-02</internalNodes>
          <leafValues>
            4.3721601366996765e-01 -1.2876285612583160e-01</leafValues></_>
        <_>
          <internalNodes>
            0 -1 125 -9.4396539032459259e-02</internalNodes>
          <leafValues>
            2.3336583375930786e-01 -2.1302014589309692e-01</leafValues></_>
        <_>
          <internalNodes>
            0 -1 628 8.1945298006758094e-05</internalNodes>
          <leafValues>
            1.2319170683622360e-01 -4.1156929731369019e-01</leafValues></_>
        <_>
          <internalNodes>
            0 -1 82 -1.2350238393992186e-03</internalNodes>
          <leafValues>
            3.0715996026992798e-01 -1.3930127024650574e-01</leafValues></_>
        <_>
          <internalNodes>
            0 -1 184 -4.4011175632476807e-03</internalNodes>
          <leafValues>
            -4.0693351626396179e-01 1.0248866677284241e-01</leafValues></_>
        <_>
          <internalNodes>
            0 -1 552 -1.9940156489610672e-03</internalNodes>
          <leafValues>
            1.4553816616535187e-01 -2.9292172193527222e-01</leafValues></_>
        <_>
          <internalNodes>
            0 -1 683 5.7324491441249847e-02</internalNodes>
          <leafValues>
            -8.3931453526020050e-02 5.4660326242446899e-01</leafValues></_>
        <_>
          <internalNodes>
            0 -1 558 -5.4865758866071701e-03</internalNodes>
          <leafValues>
            -6.6473966836929321e-01 7.3746010661125183e-02</leafValues></_>
        <_>
          <internalNodes>
            0 -1 476 -2.6121415197849274e-02</internalNodes>
          <leafValues>
            4.7907575964927673e-01 -1.0402747988700867e-01</leafValues></_>
        <_>
          <internalNodes>
            0 -1 614 7.5722830370068550e-03</internalNodes>
          <leafValues>
            -5.5933929979801178e-02 7.3655641078948975e-01</leafValues></_>
        <_>
          <internalNodes>
            0 -1 94 -1.4697937876917422e-04</internalNodes>
          <leafValues>
            -4.2185762524604797e-01 1.2456563860177994e-01</leafValues></_>
        <_>
          <internalNodes>
            0 -1 63 -6.7693836172111332e-05</internalNodes>
          <leafValues>
            -3.8642582297325134e-01 1.3396671414375305e-01</leafValues></_>
        <_>
          <internalNodes>
            0 -1 304 -7.8252254752442241e-04</internalNodes>
          <leafValues>
            -2.6889860630035400e-01 1.6179269552230835e-01</leafValues></_>
        <_>
          <internalNodes>
            0 -1 171 4.2333025485277176e-03</internalNodes>
          <leafValues>
            7.3536157608032227e-02 -5.5660313367843628e-01</leafValues></_>
        <_>
          <internalNodes>
            0 -1 406 -1.7064395360648632e-03</internalNodes>
          <leafValues>
            2.2951708734035492e-01 -1.9410851597785950e-01</leafValues></_>
        <_>
          <internalNodes>
            0 -1 11 -1.0045759379863739e-02</internalNodes>
          <leafValues>
            4.1938734054565430e-01 -1.1954637616872787e-01</leafValues></_>
        <_>
          <internalNodes>
            0 -1 140 -5.7758390903472900e-03</internalNodes>
          <leafValues>
            3.7175297737121582e-01 -1.3422180712223053e-01</leafValues></_>
        <_>
          <internalNodes>
            0 -1 436 -1.8963633920066059e-05</internalNodes>
          <leafValues>
            1.6336788237094879e-01 -3.2440358400344849e-01</leafValues></_>
        <_>
          <internalNodes>
            0 -1 361 -7.5606832979246974e-05</internalNodes>
          <leafValues>
            2.5716754794120789e-01 -2.1276105940341949e-01</leafValues></_>
        <_>
          <internalNodes>
            0 -1 660 -1.0870469268411398e-03</internalNodes>
          <leafValues>
            -4.9285787343978882e-01 9.5338694751262665e-02</leafValues></_>
        <_>
          <internalNodes>
            0 -1 15 -3.2680466771125793e-02</internalNodes>
          <leafValues>
            3.2537445425987244e-01 -1.4234234392642975e-01</leafValues></_>
        <_>
          <internalNodes>
            0 -1 382 2.8488270472735167e-03</internalNodes>
          <leafValues>
            -1.5575140714645386e-01 2.9197418689727783e-01</leafValues></_>
        <_>
          <internalNodes>
            0 -1 280 -5.7807881385087967e-03</internalNodes>
          <leafValues>
            -7.3952817916870117e-01 6.7871659994125366e-02</leafValues></_>
        <_>
          <internalNodes>
            0 -1 188 -4.9601215869188309e-03</internalNodes>
          <leafValues>
            3.0315676331520081e-01 -1.6426093876361847e-01</leafValues></_>
        <_>
          <internalNodes>
            0 -1 556 -6.7309485748410225e-03</internalNodes>
          <leafValues>
            -9.1009289026260376e-01 5.1195144653320312e-02</leafValues></_>
        <_>
          <internalNodes>
            0 -1 507 9.6589370514266193e-05</internalNodes>
          <leafValues>
            9.5093213021755219e-02 -4.0414384007453918e-01</leafValues></_>
        <_>
          <internalNodes>
            0 -1 222 6.5226433798670769e-04</internalNodes>
          <leafValues>
            -1.7522025108337402e-01 2.6408746838569641e-01</leafValues></_>
        <_>
          <internalNodes>
            0 -1 204 1.4401881489902735e-03</internalNodes>
          <leafValues>
            -1.0808513313531876e-01 4.5104184746742249e-01</leafValues></_>
        <_>
          <internalNodes>
            0 -1 510 -4.7911023721098900e-03</internalNodes>
          <leafValues>
            -5.8159363269805908e-01 9.3641415238380432e-02</leafValues></_>
        <_>
          <internalNodes>
            0 -1 200 -1.2007046025246382e-03</internalNodes>
          <leafValues>
            -7.1242898702621460e-01 5.9796046465635300e-02</leafValues></_>
        <_>
          <internalNodes>
            0 -1 604 5.4656696738675237e-04</internalNodes>
          <leafValues>
            -1.3839046657085419e-01 3.9478200674057007e-01</leafValues></_>
        <_>
          <internalNodes>
            0 -1 56 1.6166230663657188e-02</internalNodes>
          <leafValues>
            6.2029633671045303e-02 -8.2600396871566772e-01</leafValues></_>
        <_>
          <internalNodes>
            0 -1 493 -1.0854986496269703e-02</internalNodes>
          <leafValues>
            4.2232272028923035e-01 -1.2445464730262756e-01</leafValues></_>
        <_>
          <internalNodes>
            0 -1 645 7.8576821833848953e-03</internalNodes>
          <leafValues>
            -1.8293824791908264e-01 2.5669196248054504e-01</leafValues></_>
        <_>
